<?xml version="1.0"?>
<opencv_storage>
<cascade>
  <stageType>BOOST</stageType>
  <featureType>HAAR</featureType>
  <height>24</height>
  <width>24</width>
  <stageParams>
    <boostType>GAB</boostType>
    <minHitRate>9.9500000476837158e-01</minHitRate>
    <maxFalseAlarm>5.0000000000000000e-01</maxFalseAlarm>
    <weightTrimRate>9.4999999999999996e-01</weightTrimRate>
    <maxDepth>1</maxDepth>
    <maxWeakCount>100</maxWeakCount></stageParams>
  <featureParams>
    <maxCatCount>0</maxCatCount>
    <featSize>1</featSize>
    <mode>BASIC</mode></featureParams>
  <stageNum>16</stageNum>
  <stages>
    <!-- stage 0 -->
    <_>
      <maxWeakCount>1</maxWeakCount>
      <stageThreshold>1.</stageThreshold>
      <weakClassifiers>
        <_>
          <internalNodes>
            0 -1 46 1.6851320397108793e-03</internalNodes>
          <leafValues>
            -1. 1.</leafValues></_></weakClassifiers></_>
    <!-- stage 1 -->
    <_>
      <maxWeakCount>3</maxWeakCount>
      <stageThreshold>-4.1421043872833252e-01</stageThreshold>
      <weakClassifiers>
        <_>
          <internalNodes>
            0 -1 33 -2.2595748305320740e-05</internalNodes>
          <leafValues>
            8.8025480508804321e-01 -7.6119405031204224e-01</leafValues></_>
        <_>
          <internalNodes>
            0 -1 48 2.1848029064130969e-05</internalNodes>
          <leafValues>
            -8.6764609813690186e-01 7.0935547351837158e-01</leafValues></_>
        <_>
          <internalNodes>
            0 -1 38 -3.0065651517361403e-03</internalNodes>
          <leafValues>
            9.4408214092254639e-01 -4.2681911587715149e-01</leafValues></_></weakClassifiers></_>
    <!-- stage 2 -->
    <_>
      <maxWeakCount>4</maxWeakCount>
      <stageThreshold>2.8740063309669495e-01</stageThreshold>
      <weakClassifiers>
        <_>
          <internalNodes>
            0 -1 48 2.1848029064130969e-05</internalNodes>
          <leafValues>
            -6.3636362552642822e-01 8.5101008415222168e-01</leafValues></_>
        <_>
          <internalNodes>
            0 -1 19 -8.8246092200279236e-03</internalNodes>
          <leafValues>
            8.9687085151672363e-01 -3.5437977313995361e-01</leafValues></_>
        <_>
          <internalNodes>
            0 -1 10 -9.9996058270335197e-04</internalNodes>
          <leafValues>
            -8.9231604337692261e-01 5.3470498323440552e-01</leafValues></_>
        <_>
          <internalNodes>
            0 -1 35 2.9639366548508406e-03</internalNodes>
          <leafValues>
            -5.0781154632568359e-01 8.0444401502609253e-01</leafValues></_></weakClassifiers></_>
    <!-- stage 3 -->
    <_>
      <maxWeakCount>5</maxWeakCount>
      <stageThreshold>-5.1090961694717407e-01</stageThreshold>
      <weakClassifiers>
        <_>
          <internalNodes>
            0 -1 11 -1.1710620019584894e-03</internalNodes>
          <leafValues>
            -6.7664670944213867e-01 8.3665835857391357e-01</leafValues></_>
        <_>
          <internalNodes>
            0 -1 22 -3.7533673457801342e-03</internalNodes>
          <leafValues>
            7.6563125848770142e-01 -4.2372566461563110e-01</leafValues></_>
        <_>
          <internalNodes>
            0 -1 42 2.4703100789338350e-03</internalNodes>
          <leafValues>
            -6.0371881723403931e-01 6.2379920482635498e-01</leafValues></_>
        <_>
          <internalNodes>
            0 -1 4 9.2879717703908682e-04</internalNodes>
          <leafValues>
            3.6529439687728882e-01 -8.8763660192489624e-01</leafValues></_>
        <_>
          <internalNodes>
            0 -1 51 4.9353623762726784e-04</internalNodes>
          <leafValues>
            -6.6000491380691528e-01 4.8127794265747070e-01</leafValues></_></weakClassifiers></_>
    <!-- stage 4 -->
    <_>
      <maxWeakCount>5</maxWeakCount>
      <stageThreshold>-1.5121893584728241e-01</stageThreshold>
      <weakClassifiers>
        <_>
          <internalNodes>
            0 -1 6 1.6972689190879464e-03</internalNodes>
          <leafValues>
            8.2592594623565674e-01 -7.2185432910919189e-01</leafValues></_>
        <_>
          <internalNodes>
            0 -1 8 -9.2797621618956327e-04</internalNodes>
          <leafValues>
            -8.7385231256484985e-01 5.6186270713806152e-01</leafValues></_>
        <_>
          <internalNodes>
            0 -1 37 -1.5137990936636925e-02</internalNodes>
          <leafValues>
            9.1574370861053467e-01 -4.6351256966590881e-01</leafValues></_>
        <_>
          <internalNodes>
            0 -1 2 -6.3870742451399565e-04</internalNodes>
          <leafValues>
            -6.6730511188507080e-01 6.3387656211853027e-01</leafValues></_>
        <_>
          <internalNodes>
            0 -1 50 -2.2302940487861633e-02</internalNodes>
          <leafValues>
            8.8600212335586548e-01 -3.5173115134239197e-01</leafValues></_></weakClassifiers></_>
    <!-- stage 5 -->
    <_>
      <maxWeakCount>5</maxWeakCount>
      <stageThreshold>6.9687426090240479e-02</stageThreshold>
      <weakClassifiers>
        <_>
          <internalNodes>
            0 -1 21 8.6662010289728642e-04</internalNodes>
          <leafValues>
            8.3905178308486938e-01 -6.9047617912292480e-01</leafValues></_>
        <_>
          <internalNodes>
            0 -1 56 6.4558582380414009e-04</internalNodes>
          <leafValues>
            -5.6736397743225098e-01 6.8481147289276123e-01</leafValues></_>
        <_>
          <internalNodes>
            0 -1 30 -3.3897352404892445e-03</internalNodes>
          <leafValues>
            9.4532728195190430e-01 -3.8398709893226624e-01</leafValues></_>
        <_>
          <internalNodes>
            0 -1 31 3.9159888401627541e-03</internalNodes>
          <leafValues>
            -2.7631437778472900e-01 8.2435214519500732e-01</leafValues></_>
        <_>
          <internalNodes>
            0 -1 40 -2.0640916191041470e-03</internalNodes>
          <leafValues>
            9.3939602375030518e-01 -3.6501291394233704e-01</leafValues></_></weakClassifiers></_>
    <!-- stage 6 -->
    <_>
      <maxWeakCount>4</maxWeakCount>
      <stageThreshold>-9.3972384929656982e-02</stageThreshold>
      <weakClassifiers>
        <_>
          <internalNodes>
            0 -1 47 6.3410412985831499e-04</internalNodes>
          <leafValues>
            -8.0000001192092896e-01 8.7349778413772583e-01</leafValues></_>
        <_>
          <internalNodes>
            0 -1 64 1.3984834775328636e-02</internalNodes>
          <leafValues>
            6.6816276311874390e-01 -6.5885925292968750e-01</leafValues></_>
        <_>
          <internalNodes>
            0 -1 30 -4.3061738833785057e-03</internalNodes>
          <leafValues>
            8.8295340538024902e-01 -3.1370940804481506e-01</leafValues></_>
        <_>
          <internalNodes>
            0 -1 68 1.3623326085507870e-03</internalNodes>
          <leafValues>
            4.8193344473838806e-01 -7.6173067092895508e-01</leafValues></_></weakClassifiers></_>
    <!-- stage 7 -->
    <_>
      <maxWeakCount>6</maxWeakCount>
      <stageThreshold>1.3649489730596542e-02</stageThreshold>
      <weakClassifiers>
        <_>
          <internalNodes>
            0 -1 63 9.4398134388029575e-04</internalNodes>
          <leafValues>
            8.0923074483871460e-01 -5.8904111385345459e-01</leafValues></_>
        <_>
          <internalNodes>
            0 -1 22 -8.7609078036621213e-05</internalNodes>
          <leafValues>
            5.4813539981842041e-01 -7.6178300380706787e-01</leafValues></_>
        <_>
          <internalNodes>
            0 -1 30 -4.6719829551875591e-03</internalNodes>
          <leafValues>
            9.2556011676788330e-01 -3.6881101131439209e-01</leafValues></_>
        <_>
          <internalNodes>
            0 -1 63 -1.1813601013273001e-03</internalNodes>
          <leafValues>
            -7.8903657197952271e-01 4.1919785737991333e-01</leafValues></_>
        <_>
          <internalNodes>
            0 -1 31 7.2355410084128380e-03</internalNodes>
          <leafValues>
            -3.3217269182205200e-01 8.5082149505615234e-01</leafValues></_>
        <_>
          <internalNodes>
            0 -1 0 4.9454130930826068e-04</internalNodes>
          <leafValues>
            3.3634099364280701e-01 -8.1185913085937500e-01</leafValues></_></weakClassifiers></_>
    <!-- stage 8 -->
    <_>
      <maxWeakCount>4</maxWeakCount>
      <stageThreshold>9.2033587396144867e-02</stageThreshold>
      <weakClassifiers>
        <_>
          <internalNodes>
            0 -1 15 -5.7188004255294800e-02</internalNodes>
          <leafValues>
            -5.4022985696792603e-01 8.2842832803726196e-01</leafValues></_>
        <_>
          <internalNodes>
            0 -1 0 -1.0525652905926108e-03</internalNodes>
          <leafValues>
            -8.1878155469894409e-01 5.7984447479248047e-01</leafValues></_>
        <_>
          <internalNodes>
            0 -1 30 -5.3999871015548706e-03</internalNodes>
          <leafValues>
            9.1532361507415771e-01 -3.0498969554901123e-01</leafValues></_>
        <_>
          <internalNodes>
            0 -1 14 -1.8212129361927509e-05</internalNodes>
          <leafValues>
            3.8737651705741882e-01 -7.6505637168884277e-01</leafValues></_></weakClassifiers></_>
    <!-- stage 9 -->
    <_>
      <maxWeakCount>6</maxWeakCount>
      <stageThreshold>6.8313971161842346e-02</stageThreshold>
      <weakClassifiers>
        <_>
          <internalNodes>
            0 -1 71 1.2706080451607704e-03</internalNodes>
          <leafValues>
            8.2954543828964233e-01 -4.5454546809196472e-01</leafValues></_>
        <_>
          <internalNodes>
            0 -1 18 -1.0484887752681971e-03</internalNodes>
          <leafValues>
            -8.3629173040390015e-01 5.2729451656341553e-01</leafValues></_>
        <_>
          <internalNodes>
            0 -1 35 5.2219452336430550e-03</internalNodes>
          <leafValues>
            -3.3485233783721924e-01 7.6183497905731201e-01</leafValues></_>
        <_>
          <internalNodes>
            0 -1 34 1.7216174455825239e-05</internalNodes>
          <leafValues>
            -6.5171855688095093e-01 4.1223415732383728e-01</leafValues></_>
        <_>
          <internalNodes>
            0 -1 36 4.9256188794970512e-03</internalNodes>
          <leafValues>
            -3.2493740320205688e-01 8.5131335258483887e-01</leafValues></_>
        <_>
          <internalNodes>
            0 -1 61 1.7618427518755198e-03</internalNodes>
          <leafValues>
            3.2261583209037781e-01 -8.7574344873428345e-01</leafValues></_></weakClassifiers></_>
    <!-- stage 10 -->
    <_>
      <maxWeakCount>6</maxWeakCount>
      <stageThreshold>-1.5889899432659149e-01</stageThreshold>
      <weakClassifiers>
        <_>
          <internalNodes>
            0 -1 65 2.3590312339365482e-03</internalNodes>
          <leafValues>
            7.8537172079086304e-01 -7.8640776872634888e-01</leafValues></_>
        <_>
          <internalNodes>
            0 -1 23 6.6918730735778809e-02</internalNodes>
          <leafValues>
            5.4359370470046997e-01 -8.6897957324981689e-01</leafValues></_>
        <_>
          <internalNodes>
            0 -1 24 4.4074133038520813e-03</internalNodes>
          <leafValues>
            -3.7491899728775024e-01 8.6149299144744873e-01</leafValues></_>
        <_>
          <internalNodes>
            0 -1 66 -1.1315529700368643e-03</internalNodes>
          <leafValues>
            -9.2209315299987793e-01 3.1876939535140991e-01</leafValues></_>
        <_>
          <internalNodes>
            0 -1 60 6.3401730731129646e-03</internalNodes>
          <leafValues>
            -4.5277258753776550e-01 5.8754348754882812e-01</leafValues></_>
        <_>
          <internalNodes>
            0 -1 17 1.4296272769570351e-02</internalNodes>
          <leafValues>
            -4.4747883081436157e-01 7.6380997896194458e-01</leafValues></_></weakClassifiers></_>
    <!-- stage 11 -->
    <_>
      <maxWeakCount>9</maxWeakCount>
      <stageThreshold>-7.8097057342529297e-01</stageThreshold>
      <weakClassifiers>
        <_>
          <internalNodes>
            0 -1 62 1.3058453332632780e-03</internalNodes>
          <leafValues>
            7.8271305561065674e-01 -7.1428573131561279e-01</leafValues></_>
        <_>
          <internalNodes>
            0 -1 49 9.9434959702193737e-04</internalNodes>
          <leafValues>
            -7.7115368843078613e-01 4.5358672738075256e-01</leafValues></_>
        <_>
          <internalNodes>
            0 -1 30 -5.4166568443179131e-03</internalNodes>
          <leafValues>
            7.7311342954635620e-01 -2.9901275038719177e-01</leafValues></_>
        <_>
          <internalNodes>
            0 -1 5 1.7910659080371261e-03</internalNodes>
          <leafValues>
            3.0254632234573364e-01 -8.0517548322677612e-01</leafValues></_>
        <_>
          <internalNodes>
            0 -1 36 5.4398784413933754e-03</internalNodes>
          <leafValues>
            -3.0479186773300171e-01 7.7185541391372681e-01</leafValues></_>
        <_>
          <internalNodes>
            0 -1 20 -4.6276509761810303e-02</internalNodes>
          <leafValues>
            8.1886911392211914e-01 -2.6260522007942200e-01</leafValues></_>
        <_>
          <internalNodes>
            0 -1 55 3.5600487142801285e-02</internalNodes>
          <leafValues>
            -2.6303675770759583e-01 9.0968662500381470e-01</leafValues></_>
        <_>
          <internalNodes>
            0 -1 59 -1.1842728126794100e-03</internalNodes>
          <leafValues>
            -8.6419761180877686e-01 2.9819095134735107e-01</leafValues></_>
        <_>
          <internalNodes>
            0 -1 58 2.0274322014302015e-03</internalNodes>
          <leafValues>
            -3.2617250084877014e-01 7.7387768030166626e-01</leafValues></_></weakClassifiers></_>
    <!-- stage 12 -->
    <_>
      <maxWeakCount>6</maxWeakCount>
      <stageThreshold>-1.0440600663423538e-01</stageThreshold>
      <weakClassifiers>
        <_>
          <internalNodes>
            0 -1 67 1.5811373014003038e-03</internalNodes>
          <leafValues>
            8.0206435918807983e-01 -7.4193549156188965e-01</leafValues></_>
        <_>
          <internalNodes>
            0 -1 32 -1.4746801753062755e-05</internalNodes>
          <leafValues>
            5.4274320602416992e-01 -7.2946429252624512e-01</leafValues></_>
        <_>
          <internalNodes>
            0 -1 25 2.7776132337749004e-03</internalNodes>
          <leafValues>
            -5.8447581529617310e-01 4.2540699243545532e-01</leafValues></_>
        <_>
          <internalNodes>
            0 -1 12 5.8713578619062901e-03</internalNodes>
          <leafValues>
            -3.2003790140151978e-01 7.0453983545303345e-01</leafValues></_>
        <_>
          <internalNodes>
            0 -1 3 1.5948377549648285e-03</internalNodes>
          <leafValues>
            3.6763918399810791e-01 -6.6163527965545654e-01</leafValues></_>
        <_>
          <internalNodes>
            0 -1 29 8.6176004260778427e-03</internalNodes>
          <leafValues>
            3.8416850566864014e-01 -6.5001434087753296e-01</leafValues></_></weakClassifiers></_>
    <!-- stage 13 -->
    <_>
      <maxWeakCount>8</maxWeakCount>
      <stageThreshold>-2.6203021407127380e-01</stageThreshold>
      <weakClassifiers>
        <_>
          <internalNodes>
            0 -1 9 1.2012539431452751e-02</internalNodes>
          <leafValues>
            7.8352373838424683e-01 -6.8518519401550293e-01</leafValues></_>
        <_>
          <internalNodes>
            0 -1 26 3.5610832273960114e-03</internalNodes>
          <leafValues>
            -4.2010781168937683e-01 5.8239823579788208e-01</leafValues></_>
        <_>
          <internalNodes>
            0 -1 30 -5.6792534887790680e-03</internalNodes>
          <leafValues>
            8.8717007637023926e-01 -2.5181654095649719e-01</leafValues></_>
        <_>
          <internalNodes>
            0 -1 1 -6.8422860931605101e-04</internalNodes>
          <leafValues>
            -8.3210486173629761e-01 3.1410071253776550e-01</leafValues></_>
        <_>
          <internalNodes>
            0 -1 28 1.2516173720359802e-01</internalNodes>
          <leafValues>
            -2.7426704764366150e-01 9.7850728034973145e-01</leafValues></_>
        <_>
          <internalNodes>
            0 -1 27 1.7255749553442001e-03</internalNodes>
          <leafValues>
            -3.8097748160362244e-01 5.9715151786804199e-01</leafValues></_>
        <_>
          <internalNodes>
            0 -1 39 2.1594250574707985e-03</internalNodes>
          <leafValues>
            -2.7060213685035706e-01 8.2031875848770142e-01</leafValues></_>
        <_>
          <internalNodes>
            0 -1 54 1.5611581329721957e-04</internalNodes>
          <leafValues>
            -3.6222463846206665e-01 6.9998216629028320e-01</leafValues></_></weakClassifiers></_>
    <!-- stage 14 -->
    <_>
      <maxWeakCount>6</maxWeakCount>
      <stageThreshold>5.5637821555137634e-02</stageThreshold>
      <weakClassifiers>
        <_>
          <internalNodes>
            0 -1 44 1.6431011317763478e-04</internalNodes>
          <leafValues>
            -8.8095235824584961e-01 7.7237701416015625e-01</leafValues></_>
        <_>
          <internalNodes>
            0 -1 52 -1.6569469589740038e-03</internalNodes>
          <leafValues>
            -7.6229232549667358e-01 4.9738895893096924e-01</leafValues></_>
        <_>
          <internalNodes>
            0 -1 53 -2.2230606991797686e-03</internalNodes>
          <leafValues>
            8.6525440216064453e-01 -3.1425568461418152e-01</leafValues></_>
        <_>
          <internalNodes>
            0 -1 45 -4.3051019310951233e-03</internalNodes>
          <leafValues>
            9.6086823940277100e-01 -2.7213877439498901e-01</leafValues></_>
        <_>
          <internalNodes>
            0 -1 57 1.3954615860711783e-04</internalNodes>
          <leafValues>
            -6.5464472770690918e-01 3.8836857676506042e-01</leafValues></_>
        <_>
          <internalNodes>
            0 -1 7 -9.0651732170954347e-04</internalNodes>
          <leafValues>
            -8.6960512399673462e-01 2.4357900023460388e-01</leafValues></_></weakClassifiers></_>
    <!-- stage 15 -->
    <_>
      <maxWeakCount>6</maxWeakCount>
      <stageThreshold>-3.8580462336540222e-01</stageThreshold>
      <weakClassifiers>
        <_>
          <internalNodes>
            0 -1 69 1.3940553180873394e-03</internalNodes>
          <leafValues>
            8.0236172676086426e-01 -3.8271605968475342e-01</leafValues></_>
        <_>
          <internalNodes>
            0 -1 70 -8.4769038949161768e-04</internalNodes>
          <leafValues>
            -6.7090475559234619e-01 4.7179630398750305e-01</leafValues></_>
        <_>
          <internalNodes>
            0 -1 13 5.0312331877648830e-03</internalNodes>
          <leafValues>
            -3.9249584078788757e-01 5.9384202957153320e-01</leafValues></_>
        <_>
          <internalNodes>
            0 -1 43 -5.3669216868001968e-05</internalNodes>
          <leafValues>
            3.0328604578971863e-01 -7.9671049118041992e-01</leafValues></_>
        <_>
          <internalNodes>
            0 -1 41 9.2626491095870733e-05</internalNodes>
          <leafValues>
            -7.3751610517501831e-01 2.3634362220764160e-01</leafValues></_>
        <_>
          <internalNodes>
            0 -1 16 3.0722782015800476e-02</internalNodes>
          <leafValues>
            2.3143127560615540e-01 -8.3323669433593750e-01</leafValues></_></weakClassifiers></_></stages>
  <features>
    <_>
      <rects>
        <_>
          0 1 2 5 -1.</_>
        <_>
          1 1 1 5 2.</_></rects>
      <tilted>0</tilted></_>
    <_>
      <rects>
        <_>
          0 3 2 4 -1.</_>
        <_>
          1 3 1 4 2.</_></rects>
      <tilted>0</tilted></_>
    <_>
      <rects>
        <_>
          0 6 18 6 -1.</_>
        <_>
          6 6 6 6 3.</_></rects>
      <tilted>0</tilted></_>
    <_>
      <rects>
        <_>
          0 10 1 12 -1.</_>
        <_>
          0 14 1 4 3.</_></rects>
      <tilted>0</tilted></_>
    <_>
      <rects>
        <_>
          0 15 1 4 -1.</_>
        <_>
          0 17 1 2 2.</_></rects>
      <tilted>0</tilted></_>
    <_>
      <rects>
        <_>
          0 21 6 3 -1.</_>
        <_>
          2 21 2 3 3.</_></rects>
      <tilted>0</tilted></_>
    <_>
      <rects>
        <_>
          1 0 10 2 -1.</_>
        <_>
          1 0 5 1 2.</_>
        <_>
          6 1 5 1 2.</_></rects>
      <tilted>0</tilted></_>
    <_>
      <rects>
        <_>
          1 22 4 2 -1.</_>
        <_>
          1 23 4 1 2.</_></rects>
      <tilted>0</tilted></_>
    <_>
      <rects>
        <_>
          2 0 8 2 -1.</_>
        <_>
          2 0 4 1 2.</_>
        <_>
          6 1 4 1 2.</_></rects>
      <tilted>0</tilted></_>
    <_>
      <rects>
        <_>
          2 12 5 6 -1.</_>
        <_>
          2 15 5 3 2.</_></rects>
      <tilted>0</tilted></_>
    <_>
      <rects>
        <_>
          3 0 4 2 -1.</_>
        <_>
          3 1 4 1 2.</_></rects>
      <tilted>0</tilted></_>
    <_>
      <rects>
        <_>
          3 0 8 2 -1.</_>
        <_>
          3 0 4 1 2.</_>
        <_>
          7 1 4 1 2.</_></rects>
      <tilted>0</tilted></_>
    <_>
      <rects>
        <_>
          4 12 6 1 -1.</_>
        <_>
          6 12 2 1 3.</_></rects>
      <tilted>0</tilted></_>
    <_>
      <rects>
        <_>
          4 13 6 2 -1.</_>
        <_>
          6 13 2 2 3.</_></rects>
      <tilted>0</tilted></_>
    <_>
      <rects>
        <_>
          5 6 8 8 -1.</_>
        <_>
          5 6 4 4 2.</_>
        <_>
          9 10 4 4 2.</_></rects>
      <tilted>0</tilted></_>
    <_>
      <rects>
        <_>
          5 9 16 14 -1.</_>
        <_>
          5 9 8 7 2.</_>
        <_>
          13 16 8 7 2.</_></rects>
      <tilted>0</tilted></_>
    <_>
      <rects>
        <_>
          5 10 16 4 -1.</_>
        <_>
          13 10 8 4 2.</_></rects>
      <tilted>0</tilted></_>
    <_>
      <rects>
        <_>
          5 12 6 4 -1.</_>
        <_>
          7 12 2 4 3.</_></rects>
      <tilted>0</tilted></_>
    <_>
      <rects>
        <_>
          6 0 5 2 -1.</_>
        <_>
          6 1 5 1 2.</_></rects>
      <tilted>0</tilted></_>
    <_>
      <rects>
        <_>
          6 12 9 1 -1.</_>
        <_>
          9 12 3 1 3.</_></rects>
      <tilted>0</tilted></_>
    <_>
      <rects>
        <_>
          6 13 8 6 -1.</_>
        <_>
          6 16 8 3 2.</_></rects>
      <tilted>0</tilted></_>
    <_>
      <rects>
        <_>
          7 0 3 2 -1.</_>
        <_>
          7 1 3 1 2.</_></rects>
      <tilted>0</tilted></_>
    <_>
      <rects>
        <_>
          7 12 4 2 -1.</_>
        <_>
          9 12 2 2 2.</_></rects>
      <tilted>0</tilted></_>
    <_>
      <rects>
        <_>
          9 5 7 14 -1.</_>
        <_>
          9 12 7 7 2.</_></rects>
      <tilted>0</tilted></_>
    <_>
      <rects>
        <_>
          9 11 3 1 -1.</_>
        <_>
          10 11 1 1 3.</_></rects>
      <tilted>0</tilted></_>
    <_>
      <rects>
        <_>
          9 13 3 2 -1.</_>
        <_>
          9 14 3 1 2.</_></rects>
      <tilted>0</tilted></_>
    <_>
      <rects>
        <_>
          9 13 4 2 -1.</_>
        <_>
          9 14 4 1 2.</_></rects>
      <tilted>0</tilted></_>
    <_>
      <rects>
        <_>
          9 14 2 2 -1.</_>
        <_>
          9 15 2 1 2.</_></rects>
      <tilted>0</tilted></_>
    <_>
      <rects>
        <_>
          10 3 10 18 -1.</_>
        <_>
          10 9 10 6 3.</_></rects>
      <tilted>0</tilted></_>
    <_>
      <rects>
        <_>
          10 9 6 5 -1.</_>
        <_>
          13 9 3 5 2.</_></rects>
      <tilted>0</tilted></_>
    <_>
      <rects>
        <_>
          10 10 2 2 -1.</_>
        <_>
          10 10 1 1 2.</_>
        <_>
          11 11 1 1 2.</_></rects>
      <tilted>0</tilted></_>
    <_>
      <rects>
        <_>
          10 11 4 2 -1.</_>
        <_>
          10 11 2 1 2.</_>
        <_>
          12 12 2 1 2.</_></rects>
      <tilted>0</tilted></_>
    <_>
      <rects>
        <_>
          10 12 2 1 -1.</_>
        <_>
          11 12 1 1 2.</_></rects>
      <tilted>0</tilted></_>
    <_>
      <rects>
        <_>
          10 12 3 1 -1.</_>
        <_>
          11 12 1 1 3.</_></rects>
      <tilted>0</tilted></_>
    <_>
      <rects>
        <_>
          10 13 2 1 -1.</_>
        <_>
          11 13 1 1 2.</_></rects>
      <tilted>0</tilted></_>
    <_>
      <rects>
        <_>
          11 9 1 3 -1.</_>
        <_>
          11 10 1 1 3.</_></rects>
      <tilted>0</tilted></_>
    <_>
      <rects>
        <_>
          11 9 3 2 -1.</_>
        <_>
          12 9 1 2 3.</_></rects>
      <tilted>0</tilted></_>
    <_>
      <rects>
        <_>
          11 9 1 6 -1.</_>
        <_>
          11 11 1 2 3.</_></rects>
      <tilted>0</tilted></_>
    <_>
      <rects>
        <_>
          11 10 1 2 -1.</_>
        <_>
          11 11 1 1 2.</_></rects>
      <tilted>0</tilted></_>
    <_>
      <rects>
        <_>
          11 11 3 1 -1.</_>
        <_>
          12 11 1 1 3.</_></rects>
      <tilted>0</tilted></_>
    <_>
      <rects>
        <_>
          11 11 2 2 -1.</_>
        <_>
          11 11 1 1 2.</_>
        <_>
          12 12 1 1 2.</_></rects>
      <tilted>0</tilted></_>
    <_>
      <rects>
        <_>
          11 12 2 1 -1.</_>
        <_>
          12 12 1 1 2.</_></rects>
      <tilted>0</tilted></_>
    <_>
      <rects>
        <_>
          11 12 1 2 -1.</_>
        <_>
          11 13 1 1 2.</_></rects>
      <tilted>0</tilted></_>
    <_>
      <rects>
        <_>
          11 12 3 1 -1.</_>
        <_>
          12 12 1 1 3.</_></rects>
      <tilted>0</tilted></_>
    <_>
      <rects>
        <_>
          11 12 2 3 -1.</_>
        <_>
          11 13 2 1 3.</_></rects>
      <tilted>0</tilted></_>
    <_>
      <rects>
        <_>
          12 10 3 1 -1.</_>
        <_>
          13 10 1 1 3.</_></rects>
      <tilted>0</tilted></_>
    <_>
      <rects>
        <_>
          12 12 1 2 -1.</_>
        <_>
          12 13 1 1 2.</_></rects>
      <tilted>0</tilted></_>
    <_>
      <rects>
        <_>
          12 12 3 1 -1.</_>
        <_>
          13 12 1 1 3.</_></rects>
      <tilted>0</tilted></_>
    <_>
      <rects>
        <_>
          12 12 2 2 -1.</_>
        <_>
          13 12 1 2 2.</_></rects>
      <tilted>0</tilted></_>
    <_>
      <rects>
        <_>
          12 12 3 2 -1.</_>
        <_>
          13 12 1 2 3.</_></rects>
      <tilted>0</tilted></_>
    <_>
      <rects>
        <_>
          12 12 4 6 -1.</_>
        <_>
          12 15 4 3 2.</_></rects>
      <tilted>0</tilted></_>
    <_>
      <rects>
        <_>
          12 13 1 2 -1.</_>
        <_>
          12 14 1 1 2.</_></rects>
      <tilted>0</tilted></_>
    <_>
      <rects>
        <_>
          13 0 9 2 -1.</_>
        <_>
          13 1 9 1 2.</_></rects>
      <tilted>0</tilted></_>
    <_>
      <rects>
        <_>
          13 8 2 4 -1.</_>
        <_>
          13 8 1 2 2.</_>
        <_>
          14 10 1 2 2.</_></rects>
      <tilted>0</tilted></_>
    <_>
      <rects>
        <_>
          13 10 1 3 -1.</_>
        <_>
          13 11 1 1 3.</_></rects>
      <tilted>0</tilted></_>
    <_>
      <rects>
        <_>
          14 10 8 3 -1.</_>
        <_>
          18 10 4 3 2.</_></rects>
      <tilted>0</tilted></_>
    <_>
      <rects>
        <_>
          14 11 1 2 -1.</_>
        <_>
          14 12 1 1 2.</_></rects>
      <tilted>0</tilted></_>
    <_>
      <rects>
        <_>
          14 12 1 2 -1.</_>
        <_>
          14 13 1 1 2.</_></rects>
      <tilted>0</tilted></_>
    <_>
      <rects>
        <_>
          15 9 2 2 -1.</_>
        <_>
          15 10 2 1 2.</_></rects>
      <tilted>0</tilted></_>
    <_>
      <rects>
        <_>
          16 0 8 2 -1.</_>
        <_>
          16 0 4 1 2.</_>
        <_>
          20 1 4 1 2.</_></rects>
      <tilted>0</tilted></_>
    <_>
      <rects>
        <_>
          16 9 6 5 -1.</_>
        <_>
          18 9 2 5 3.</_></rects>
      <tilted>0</tilted></_>
    <_>
      <rects>
        <_>
          19 19 5 3 -1.</_>
        <_>
          19 20 5 1 3.</_></rects>
      <tilted>0</tilted></_>
    <_>
      <rects>
        <_>
          19 21 3 3 -1.</_>
        <_>
          19 22 3 1 3.</_></rects>
      <tilted>0</tilted></_>
    <_>
      <rects>
        <_>
          20 2 4 2 -1.</_>
        <_>
          22 2 2 2 2.</_></rects>
      <tilted>0</tilted></_>
    <_>
      <rects>
        <_>
          20 5 4 14 -1.</_>
        <_>
          20 12 4 7 2.</_></rects>
      <tilted>0</tilted></_>
    <_>
      <rects>
        <_>
          20 18 3 6 -1.</_>
        <_>
          21 18 1 6 3.</_></rects>
      <tilted>0</tilted></_>
    <_>
      <rects>
        <_>
          20 20 3 4 -1.</_>
        <_>
          21 20 1 4 3.</_></rects>
      <tilted>0</tilted></_>
    <_>
      <rects>
        <_>
          20 20 3 3 -1.</_>
        <_>
          20 21 3 1 3.</_></rects>
      <tilted>0</tilted></_>
    <_>
      <rects>
        <_>
          23 2 1 12 -1.</_>
        <_>
          23 6 1 4 3.</_></rects>
      <tilted>0</tilted></_>
    <_>
      <rects>
        <_>
          23 3 1 9 -1.</_>
        <_>
          23 6 1 3 3.</_></rects>
      <tilted>0</tilted></_>
    <_>
      <rects>
        <_>
          23 4 1 4 -1.</_>
        <_>
          23 6 1 2 2.</_></rects>
      <tilted>0</tilted></_>
    <_>
      <rects>
        <_>
          23 7 1 6 -1.</_>
        <_>
          23 10 1 3 2.</_></rects>
      <tilted>0</tilted></_></features></cascade>
</opencv_storage>
