<?xml version="1.0"?>
<opencv_storage>
<stage14>
  <maxWeakCount>6</maxWeakCount>
  <stageThreshold>5.5637821555137634e-02</stageThreshold>
  <weakClassifiers>
    <_>
      <internalNodes>
        0 -1 119637 1.6431011317763478e-04</internalNodes>
      <leafValues>
        -8.8095235824584961e-01 7.7237701416015625e-01</leafValues></_>
    <_>
      <internalNodes>
        0 -1 128452 -1.6569469589740038e-03</internalNodes>
      <leafValues>
        -7.6229232549667358e-01 4.9738895893096924e-01</leafValues></_>
    <_>
      <internalNodes>
        0 -1 131213 -2.2230606991797686e-03</internalNodes>
      <leafValues>
        8.6525440216064453e-01 -3.1425568461418152e-01</leafValues></_>
    <_>
      <internalNodes>
        0 -1 125750 -4.3051019310951233e-03</internalNodes>
      <leafValues>
        9.6086823940277100e-01 -2.7213877439498901e-01</leafValues></_>
    <_>
      <internalNodes>
        0 -1 137853 1.3954615860711783e-04</internalNodes>
      <leafValues>
        -6.5464472770690918e-01 3.8836857676506042e-01</leafValues></_>
    <_>
      <internalNodes>
        0 -1 25735 -9.0651732170954347e-04</internalNodes>
      <leafValues>
        -8.6960512399673462e-01 2.4357900023460388e-01</leafValues></_></weakClassifiers></stage14>
</opencv_storage>
