<?xml version="1.0"?>
<opencv_storage>
<cascade>
  <stageType>BOOST</stageType>
  <featureType>HAAR</featureType>
  <height>24</height>
  <width>24</width>
  <stageParams>
    <boostType>GAB</boostType>
    <minHitRate>9.9500000476837158e-01</minHitRate>
    <maxFalseAlarm>5.0000000000000000e-01</maxFalseAlarm>
    <weightTrimRate>9.4999999999999996e-01</weightTrimRate>
    <maxDepth>1</maxDepth>
    <maxWeakCount>100</maxWeakCount></stageParams>
  <featureParams>
    <maxCatCount>0</maxCatCount>
    <featSize>1</featSize>
    <mode>BASIC</mode></featureParams>
  <stageNum>4</stageNum>
  <stages>
    <!-- stage 0 -->
    <_>
      <maxWeakCount>7</maxWeakCount>
      <stageThreshold>-1.2473041564226151e-01</stageThreshold>
      <weakClassifiers>
        <_>
          <internalNodes>
            0 -1 3 -3.8679462671279907e-01</internalNodes>
          <leafValues>
            -7.6377952098846436e-01 8.5167908668518066e-01</leafValues></_>
        <_>
          <internalNodes>
            0 -1 8 -1.7255351413041353e-03</internalNodes>
          <leafValues>
            9.5713347196578979e-01 -1.8974182009696960e-01</leafValues></_>
        <_>
          <internalNodes>
            0 -1 4 5.6206784211099148e-04</internalNodes>
          <leafValues>
            -4.1920536756515503e-01 7.5196319818496704e-01</leafValues></_>
        <_>
          <internalNodes>
            0 -1 6 6.0735195875167847e-03</internalNodes>
          <leafValues>
            -2.8599581122398376e-01 8.8721585273742676e-01</leafValues></_>
        <_>
          <internalNodes>
            0 -1 5 1.3519756495952606e-02</internalNodes>
          <leafValues>
            -2.6494824886322021e-01 9.1282868385314941e-01</leafValues></_>
        <_>
          <internalNodes>
            0 -1 7 3.4210472367703915e-03</internalNodes>
          <leafValues>
            -2.0970712602138519e-01 9.6699929237365723e-01</leafValues></_>
        <_>
          <internalNodes>
            0 -1 7 -2.4300150107592344e-03</internalNodes>
          <leafValues>
            8.3318376541137695e-01 -3.1600475311279297e-01</leafValues></_></weakClassifiers></_>
    <!-- stage 1 -->
    <_>
      <maxWeakCount>1</maxWeakCount>
      <stageThreshold>1.</stageThreshold>
      <weakClassifiers>
        <_>
          <internalNodes>
            0 -1 2 -3.4724813699722290e-01</internalNodes>
          <leafValues>
            1. -1.</leafValues></_></weakClassifiers></_>
    <!-- stage 2 -->
    <_>
      <maxWeakCount>1</maxWeakCount>
      <stageThreshold>1.</stageThreshold>
      <weakClassifiers>
        <_>
          <internalNodes>
            0 -1 0 2.3376885056495667e-01</internalNodes>
          <leafValues>
            -1. 1.</leafValues></_></weakClassifiers></_>
    <!-- stage 3 -->
    <_>
      <maxWeakCount>1</maxWeakCount>
      <stageThreshold>1.</stageThreshold>
      <weakClassifiers>
        <_>
          <internalNodes>
            0 -1 1 1.6418012976646423e-01</internalNodes>
          <leafValues>
            1. -1.</leafValues></_></weakClassifiers></_></stages>
  <features>
    <_>
      <rects>
        <_>
          0 0 24 17 -1.</_>
        <_>
          8 0 8 17 3.</_></rects>
      <tilted>0</tilted></_>
    <_>
      <rects>
        <_>
          0 0 11 21 -1.</_>
        <_>
          0 7 11 7 3.</_></rects>
      <tilted>0</tilted></_>
    <_>
      <rects>
        <_>
          0 8 14 14 -1.</_>
        <_>
          0 15 14 7 2.</_></rects>
      <tilted>0</tilted></_>
    <_>
      <rects>
        <_>
          5 0 10 24 -1.</_>
        <_>
          5 12 10 12 2.</_></rects>
      <tilted>0</tilted></_>
    <_>
      <rects>
        <_>
          6 11 10 3 -1.</_>
        <_>
          11 11 5 3 2.</_></rects>
      <tilted>0</tilted></_>
    <_>
      <rects>
        <_>
          8 10 7 6 -1.</_>
        <_>
          8 12 7 2 3.</_></rects>
      <tilted>0</tilted></_>
    <_>
      <rects>
        <_>
          8 12 3 6 -1.</_>
        <_>
          8 14 3 2 3.</_></rects>
      <tilted>0</tilted></_>
    <_>
      <rects>
        <_>
          10 9 3 3 -1.</_>
        <_>
          11 9 1 3 3.</_></rects>
      <tilted>0</tilted></_>
    <_>
      <rects>
        <_>
          10 11 2 4 -1.</_>
        <_>
          10 11 1 2 2.</_>
        <_>
          11 13 1 2 2.</_></rects>
      <tilted>0</tilted></_></features></cascade>
</opencv_storage>
