<?xml version="1.0"?>
<opencv_storage>
<stage14>
  <maxWeakCount>23</maxWeakCount>
  <stageThreshold>-1.2844837903976440e+00</stageThreshold>
  <weakClassifiers>
    <_>
      <internalNodes>
        0 -1 191343 -3.0547424685209990e-03</internalNodes>
      <leafValues>
        -5.3726708889007568e-01 2.1383647620677948e-01</leafValues></_>
    <_>
      <internalNodes>
        0 -1 63405 8.9424066245555878e-03</internalNodes>
      <leafValues>
        -1.3036419451236725e-01 6.6942501068115234e-01</leafValues></_>
    <_>
      <internalNodes>
        0 -1 153172 -6.3577643595635891e-03</internalNodes>
      <leafValues>
        6.2319618463516235e-01 -1.5926556289196014e-01</leafValues></_>
    <_>
      <internalNodes>
        0 -1 82852 7.3681108187884092e-04</internalNodes>
      <leafValues>
        1.4949949085712433e-01 -8.1328153610229492e-01</leafValues></_>
    <_>
      <internalNodes>
        0 -1 111167 -1.0161325335502625e-03</internalNodes>
      <leafValues>
        5.9336102008819580e-01 -1.3566902279853821e-01</leafValues></_>
    <_>
      <internalNodes>
        0 -1 201092 1.9109819550067186e-03</internalNodes>
      <leafValues>
        -1.6974230110645294e-01 5.0388586521148682e-01</leafValues></_>
    <_>
      <internalNodes>
        0 -1 125812 1.0945112444460392e-04</internalNodes>
      <leafValues>
        -3.1629851460456848e-01 2.7094295620918274e-01</leafValues></_>
    <_>
      <internalNodes>
        0 -1 66663 -1.5079169534146786e-03</internalNodes>
      <leafValues>
        -7.2213631868362427e-01 1.4831848442554474e-01</leafValues></_>
    <_>
      <internalNodes>
        0 -1 188714 -3.1571895815432072e-03</internalNodes>
      <leafValues>
        5.4692715406417847e-01 -1.3982306420803070e-01</leafValues></_>
    <_>
      <internalNodes>
        0 -1 199935 4.4619198888540268e-04</internalNodes>
      <leafValues>
        -2.1454352140426636e-01 3.7650635838508606e-01</leafValues></_>
    <_>
      <internalNodes>
        0 -1 246437 1.3972574379295111e-03</internalNodes>
      <leafValues>
        1.3146434724330902e-01 -7.5691616535186768e-01</leafValues></_>
    <_>
      <internalNodes>
        0 -1 200541 8.7380694458261132e-04</internalNodes>
      <leafValues>
        -2.0481672883033752e-01 4.3398666381835938e-01</leafValues></_>
    <_>
      <internalNodes>
        0 -1 190625 1.4587908517569304e-03</internalNodes>
      <leafValues>
        -2.2027535736560822e-01 4.2294985055923462e-01</leafValues></_>
    <_>
      <internalNodes>
        0 -1 177866 9.6018351614475250e-03</internalNodes>
      <leafValues>
        1.0930049419403076e-01 -8.0863112211227417e-01</leafValues></_>
    <_>
      <internalNodes>
        0 -1 177866 -5.2338498644530773e-03</internalNodes>
      <leafValues>
        -6.2599253654479980e-01 1.1086791753768921e-01</leafValues></_>
    <_>
      <internalNodes>
        0 -1 246453 -9.5157709438353777e-04</internalNodes>
      <leafValues>
        -8.8381320238113403e-01 7.6237663626670837e-02</leafValues></_>
    <_>
      <internalNodes>
        0 -1 190046 6.2979606445878744e-04</internalNodes>
      <leafValues>
        -2.5788858532905579e-01 2.9446288943290710e-01</leafValues></_>
    <_>
      <internalNodes>
        0 -1 178322 4.6607159310951829e-04</internalNodes>
      <leafValues>
        -1.9108875095844269e-01 3.4912347793579102e-01</leafValues></_>
    <_>
      <internalNodes>
        0 -1 8777 1.5263453824445605e-03</internalNodes>
      <leafValues>
        8.9562043547630310e-02 -7.3394155502319336e-01</leafValues></_>
    <_>
      <internalNodes>
        0 -1 191243 5.5978307500481606e-05</internalNodes>
      <leafValues>
        -3.4088668227195740e-01 1.8816770613193512e-01</leafValues></_>
    <_>
      <internalNodes>
        0 -1 137173 -1.4284922182559967e-01</internalNodes>
      <leafValues>
        5.1674133539199829e-01 -1.3812477886676788e-01</leafValues></_>
    <_>
      <internalNodes>
        0 -1 220103 3.4101852215826511e-03</internalNodes>
      <leafValues>
        -1.4694622159004211e-01 5.2255362272262573e-01</leafValues></_>
    <_>
      <internalNodes>
        0 -1 209867 -1.2763714417815208e-02</internalNodes>
      <leafValues>
        -7.3693919181823730e-01 1.0780831426382065e-01</leafValues></_></weakClassifiers></stage14>
</opencv_storage>
