<?xml version="1.0"?>
<opencv_storage>
<stage20>
  <maxWeakCount>27</maxWeakCount>
  <stageThreshold>-1.1050721406936646e+00</stageThreshold>
  <weakClassifiers>
    <_>
      <internalNodes>
        0 -1 261360 1.4327429234981537e-03</internalNodes>
      <leafValues>
        1.3231007754802704e-01 -7.0994943380355835e-01</leafValues></_>
    <_>
      <internalNodes>
        0 -1 106070 -6.9122901186347008e-04</internalNodes>
      <leafValues>
        5.2936452627182007e-01 -1.1012485623359680e-01</leafValues></_>
    <_>
      <internalNodes>
        0 -1 199302 1.2673735618591309e-03</internalNodes>
      <leafValues>
        -1.2008025497198105e-01 5.6015503406524658e-01</leafValues></_>
    <_>
      <internalNodes>
        0 -1 199302 -5.0678791012614965e-04</internalNodes>
      <leafValues>
        4.1060462594032288e-01 -1.6316643357276917e-01</leafValues></_>
    <_>
      <internalNodes>
        0 -1 119207 -2.2240113466978073e-03</internalNodes>
      <leafValues>
        3.3966261148452759e-01 -1.6211019456386566e-01</leafValues></_>
    <_>
      <internalNodes>
        0 -1 13151 -2.1649661939591169e-03</internalNodes>
      <leafValues>
        -4.5778074860572815e-01 1.1600013077259064e-01</leafValues></_>
    <_>
      <internalNodes>
        0 -1 244532 3.6160673946142197e-02</internalNodes>
      <leafValues>
        -1.1052854359149933e-01 4.6939584612846375e-01</leafValues></_>
    <_>
      <internalNodes>
        0 -1 137986 1.0468831751495600e-03</internalNodes>
      <leafValues>
        -1.3704848289489746e-01 3.5982343554496765e-01</leafValues></_>
    <_>
      <internalNodes>
        0 -1 164772 4.0702022612094879e-02</internalNodes>
      <leafValues>
        -1.0614609718322754e-01 5.0414615869522095e-01</leafValues></_>
    <_>
      <internalNodes>
        0 -1 61969 1.1339797638356686e-03</internalNodes>
      <leafValues>
        -1.2551745772361755e-01 4.2901572585105896e-01</leafValues></_>
    <_>
      <internalNodes>
        0 -1 140464 1.3068409316474572e-05</internalNodes>
      <leafValues>
        -2.2206899523735046e-01 2.4701470136642456e-01</leafValues></_>
    <_>
      <internalNodes>
        0 -1 61969 -2.8237735386937857e-04</internalNodes>
      <leafValues>
        2.6482340693473816e-01 -2.0355226099491119e-01</leafValues></_>
    <_>
      <internalNodes>
        0 -1 260947 -1.1149068595841527e-03</internalNodes>
      <leafValues>
        -7.5708132982254028e-01 7.7109344303607941e-02</leafValues></_>
    <_>
      <internalNodes>
        0 -1 238716 -6.7387837916612625e-03</internalNodes>
      <leafValues>
        4.3410938978195190e-01 -1.2820227444171906e-01</leafValues></_>
    <_>
      <internalNodes>
        0 -1 140389 -1.8518386059440672e-04</internalNodes>
      <leafValues>
        2.7315792441368103e-01 -1.8176773190498352e-01</leafValues></_>
    <_>
      <internalNodes>
        0 -1 152597 1.1664633639156818e-03</internalNodes>
      <leafValues>
        -2.3275980353355408e-01 2.1820816397666931e-01</leafValues></_>
    <_>
      <internalNodes>
        0 -1 166386 2.3597995459567755e-04</internalNodes>
      <leafValues>
        -2.5209045410156250e-01 2.2509478032588959e-01</leafValues></_>
    <_>
      <internalNodes>
        0 -1 113678 -8.8003365090116858e-04</internalNodes>
      <leafValues>
        -9.4262826442718506e-01 7.1815386414527893e-02</leafValues></_>
    <_>
      <internalNodes>
        0 -1 44579 2.5584997609257698e-02</internalNodes>
      <leafValues>
        3.7557654082775116e-02 -8.6093086004257202e-01</leafValues></_>
    <_>
      <internalNodes>
        0 -1 201594 2.9789654072374105e-03</internalNodes>
      <leafValues>
        -1.2989911437034607e-01 4.5261088013648987e-01</leafValues></_>
    <_>
      <internalNodes>
        0 -1 211465 -6.1933142133057117e-03</internalNodes>
      <leafValues>
        5.7507127523422241e-01 -8.8683947920799255e-02</leafValues></_>
    <_>
      <internalNodes>
        0 -1 173478 3.3443592488765717e-02</internalNodes>
      <leafValues>
        9.5199570059776306e-02 -5.7753837108612061e-01</leafValues></_>
    <_>
      <internalNodes>
        0 -1 187734 -8.1814400851726532e-02</internalNodes>
      <leafValues>
        -5.7860153913497925e-01 7.8102692961692810e-02</leafValues></_>
    <_>
      <internalNodes>
        0 -1 257372 3.3479756675660610e-03</internalNodes>
      <leafValues>
        5.1470369100570679e-02 -8.3107686042785645e-01</leafValues></_>
    <_>
      <internalNodes>
        0 -1 167353 1.3046786079939920e-05</internalNodes>
      <leafValues>
        -1.9997075200080872e-01 2.5253042578697205e-01</leafValues></_>
    <_>
      <internalNodes>
        0 -1 14861 8.4837362170219421e-02</internalNodes>
      <leafValues>
        7.2140201926231384e-02 -8.0810719728469849e-01</leafValues></_>
    <_>
      <internalNodes>
        0 -1 165825 -6.7023641895502806e-04</internalNodes>
      <leafValues>
        2.7211833000183105e-01 -2.0092178881168365e-01</leafValues></_></weakClassifiers></stage20>
</opencv_storage>
