<?xml version="1.0"?>
<opencv_storage>
<stage6>
  <maxWeakCount>6</maxWeakCount>
  <stageThreshold>-1.3007555007934570e+00</stageThreshold>
  <weakClassifiers>
    <_>
      <internalNodes>
        0 -1 256974 1.7527441959828138e-03</internalNodes>
      <leafValues>
        2.9166665673255920e-01 -9.0677964687347412e-01</leafValues></_>
    <_>
      <internalNodes>
        0 -1 256249 -1.4957906678318977e-03</internalNodes>
      <leafValues>
        -9.0883260965347290e-01 1.6484582424163818e-01</leafValues></_>
    <_>
      <internalNodes>
        0 -1 256237 1.4294036664068699e-03</internalNodes>
      <leafValues>
        1.7344087362289429e-01 -9.1111731529235840e-01</leafValues></_>
    <_>
      <internalNodes>
        0 -1 66829 1.4475963544100523e-03</internalNodes>
      <leafValues>
        1.7054474353790283e-01 -7.4420434236526489e-01</leafValues></_>
    <_>
      <internalNodes>
        0 -1 66817 -1.4279999304562807e-03</internalNodes>
      <leafValues>
        -8.5848361253738403e-01 1.5190991759300232e-01</leafValues></_>
    <_>
      <internalNodes>
        0 -1 35071 1.6288217902183533e-01</internalNodes>
      <leafValues>
        -2.6473596692085266e-01 5.4762262105941772e-01</leafValues></_></weakClassifiers></stage6>
</opencv_storage>
