<?xml version="1.0"?>
<opencv_storage>
<stage1>
  <maxWeakCount>10</maxWeakCount>
  <stageThreshold>-7.7287209033966064e-01</stageThreshold>
  <weakClassifiers>
    <_>
      <internalNodes>
        0 -1 165839 1.3534321915358305e-03</internalNodes>
      <leafValues>
        -4.2962506413459778e-01 6.6693484783172607e-01</leafValues></_>
    <_>
      <internalNodes>
        0 -1 153177 5.2558472380042076e-03</internalNodes>
      <leafValues>
        -3.3085981011390686e-01 6.7421734333038330e-01</leafValues></_>
    <_>
      <internalNodes>
        0 -1 151354 6.8402113392949104e-03</internalNodes>
      <leafValues>
        -2.8181388974189758e-01 5.4502993822097778e-01</leafValues></_>
    <_>
      <internalNodes>
        0 -1 211945 6.3479626551270485e-03</internalNodes>
      <leafValues>
        -2.1503105759620667e-01 7.9221326112747192e-01</leafValues></_>
    <_>
      <internalNodes>
        0 -1 18999 2.0297896116971970e-03</internalNodes>
      <leafValues>
        1.9177833199501038e-01 -8.4811252355575562e-01</leafValues></_>
    <_>
      <internalNodes>
        0 -1 35258 -8.8704755762591958e-04</internalNodes>
      <leafValues>
        -8.7334054708480835e-01 1.6447323560714722e-01</leafValues></_>
    <_>
      <internalNodes>
        0 -1 165319 -5.9084552340209484e-03</internalNodes>
      <leafValues>
        5.3859990835189819e-01 -2.8851786255836487e-01</leafValues></_>
    <_>
      <internalNodes>
        0 -1 150909 3.3022515475749969e-02</internalNodes>
      <leafValues>
        -2.1273593604564667e-01 8.0580896139144897e-01</leafValues></_>
    <_>
      <internalNodes>
        0 -1 251611 1.5320908278226852e-03</internalNodes>
      <leafValues>
        1.8041223287582397e-01 -9.0631896257400513e-01</leafValues></_>
    <_>
      <internalNodes>
        0 -1 202066 -2.4797571823000908e-03</internalNodes>
      <leafValues>
        6.6001772880554199e-01 -2.4279163777828217e-01</leafValues></_></weakClassifiers></stage1>
</opencv_storage>
