<?xml version="1.0"?>
<opencv_storage>
<cascade>
  <stageType>BOOST</stageType>
  <featureType>HAAR</featureType>
  <height>24</height>
  <width>24</width>
  <stageParams>
    <boostType>GAB</boostType>
    <minHitRate>9.9500000476837158e-01</minHitRate>
    <maxFalseAlarm>5.0000000000000000e-01</maxFalseAlarm>
    <weightTrimRate>9.4999999999999996e-01</weightTrimRate>
    <maxDepth>1</maxDepth>
    <maxWeakCount>100</maxWeakCount></stageParams>
  <featureParams>
    <maxCatCount>0</maxCatCount>
    <featSize>1</featSize>
    <mode>BASIC</mode></featureParams>
  <stageNum>20</stageNum>
  <stages>
    <!-- stage 0 -->
    <_>
      <maxWeakCount>7</maxWeakCount>
      <stageThreshold>-3.1149077415466309e-01</stageThreshold>
      <weakClassifiers>
        <_>
          <internalNodes>
            0 -1 31 -4.7133970260620117e-01</internalNodes>
          <leafValues>
            -8.2812500000000000e-01 8.1253802776336670e-01</leafValues></_>
        <_>
          <internalNodes>
            0 -1 75 6.2000344041734934e-04</internalNodes>
          <leafValues>
            -2.8420799970626831e-01 9.5581132173538208e-01</leafValues></_>
        <_>
          <internalNodes>
            0 -1 32 3.5768735688179731e-03</internalNodes>
          <leafValues>
            -5.1162087917327881e-01 7.3313242197036743e-01</leafValues></_>
        <_>
          <internalNodes>
            0 -1 71 3.1429030932486057e-03</internalNodes>
          <leafValues>
            -3.0729770660400391e-01 9.4729280471801758e-01</leafValues></_>
        <_>
          <internalNodes>
            0 -1 62 3.2435217872262001e-03</internalNodes>
          <leafValues>
            -3.8580742478370667e-01 9.5138317346572876e-01</leafValues></_>
        <_>
          <internalNodes>
            0 -1 70 2.4084434844553471e-03</internalNodes>
          <leafValues>
            -1.6934597492218018e-01 9.0798515081405640e-01</leafValues></_>
        <_>
          <internalNodes>
            0 -1 101 -2.5928707327693701e-03</internalNodes>
          <leafValues>
            8.3772361278533936e-01 -2.6709273457527161e-01</leafValues></_></weakClassifiers></_>
    <!-- stage 1 -->
    <_>
      <maxWeakCount>7</maxWeakCount>
      <stageThreshold>-7.1649825572967529e-01</stageThreshold>
      <weakClassifiers>
        <_>
          <internalNodes>
            0 -1 50 -8.1419631838798523e-02</internalNodes>
          <leafValues>
            -4.2131978273391724e-01 8.3354508876800537e-01</leafValues></_>
        <_>
          <internalNodes>
            0 -1 76 2.4874452501535416e-03</internalNodes>
          <leafValues>
            -2.2945919632911682e-01 8.6820673942565918e-01</leafValues></_>
        <_>
          <internalNodes>
            0 -1 2 -4.7604876453988254e-04</internalNodes>
          <leafValues>
            -8.2318252325057983e-01 3.9674496650695801e-01</leafValues></_>
        <_>
          <internalNodes>
            0 -1 91 2.2476395592093468e-02</internalNodes>
          <leafValues>
            -3.5240647196769714e-01 7.5476473569869995e-01</leafValues></_>
        <_>
          <internalNodes>
            0 -1 61 -6.1106560751795769e-03</internalNodes>
          <leafValues>
            9.5527482032775879e-01 -2.4802282452583313e-01</leafValues></_>
        <_>
          <internalNodes>
            0 -1 51 1.4006009325385094e-02</internalNodes>
          <leafValues>
            -2.2816880047321320e-01 8.9231461286544800e-01</leafValues></_>
        <_>
          <internalNodes>
            0 -1 129 -3.4809554927051067e-04</internalNodes>
          <leafValues>
            -7.9814571142196655e-01 3.3119642734527588e-01</leafValues></_></weakClassifiers></_>
    <!-- stage 2 -->
    <_>
      <maxWeakCount>7</maxWeakCount>
      <stageThreshold>-6.0956442356109619e-01</stageThreshold>
      <weakClassifiers>
        <_>
          <internalNodes>
            0 -1 16 1.5100310556590557e-03</internalNodes>
          <leafValues>
            7.9272729158401489e-01 -6.5289258956909180e-01</leafValues></_>
        <_>
          <internalNodes>
            0 -1 76 3.2083659898489714e-03</internalNodes>
          <leafValues>
            -2.3322221636772156e-01 9.1978043317794800e-01</leafValues></_>
        <_>
          <internalNodes>
            0 -1 106 -1.0139279812574387e-01</internalNodes>
          <leafValues>
            -6.2922328710556030e-01 5.0162559747695923e-01</leafValues></_>
        <_>
          <internalNodes>
            0 -1 69 3.9469460025429726e-03</internalNodes>
          <leafValues>
            -2.7824279665946960e-01 8.8252764940261841e-01</leafValues></_>
        <_>
          <internalNodes>
            0 -1 73 1.6051100101321936e-03</internalNodes>
          <leafValues>
            -2.7851161360740662e-01 8.1344842910766602e-01</leafValues></_>
        <_>
          <internalNodes>
            0 -1 110 1.2474472168833017e-03</internalNodes>
          <leafValues>
            2.9646494984626770e-01 -8.3846366405487061e-01</leafValues></_>
        <_>
          <internalNodes>
            0 -1 74 -3.8809294346719980e-03</internalNodes>
          <leafValues>
            8.9886617660522461e-01 -2.7955669164657593e-01</leafValues></_></weakClassifiers></_>
    <!-- stage 3 -->
    <_>
      <maxWeakCount>5</maxWeakCount>
      <stageThreshold>-3.0440267920494080e-01</stageThreshold>
      <weakClassifiers>
        <_>
          <internalNodes>
            0 -1 111 -1.4720715116709471e-03</internalNodes>
          <leafValues>
            -7.1257483959197998e-01 8.4039902687072754e-01</leafValues></_>
        <_>
          <internalNodes>
            0 -1 115 -1.4135182835161686e-02</internalNodes>
          <leafValues>
            -5.4405283927917480e-01 6.5368938446044922e-01</leafValues></_>
        <_>
          <internalNodes>
            0 -1 75 2.5343075394630432e-03</internalNodes>
          <leafValues>
            -3.3252146840095520e-01 9.6784436702728271e-01</leafValues></_>
        <_>
          <internalNodes>
            0 -1 88 -2.2629902232438326e-03</internalNodes>
          <leafValues>
            8.4247219562530518e-01 -2.3709934949874878e-01</leafValues></_>
        <_>
          <internalNodes>
            0 -1 109 8.1610673805698752e-04</internalNodes>
          <leafValues>
            3.2410359382629395e-01 -7.7122932672500610e-01</leafValues></_></weakClassifiers></_>
    <!-- stage 4 -->
    <_>
      <maxWeakCount>7</maxWeakCount>
      <stageThreshold>6.8931281566619873e-02</stageThreshold>
      <weakClassifiers>
        <_>
          <internalNodes>
            0 -1 0 -7.5778964674100280e-04</internalNodes>
          <leafValues>
            -6.2121212482452393e-01 7.9987800121307373e-01</leafValues></_>
        <_>
          <internalNodes>
            0 -1 76 3.5947496071457863e-03</internalNodes>
          <leafValues>
            -1.8386365473270416e-01 8.9436417818069458e-01</leafValues></_>
        <_>
          <internalNodes>
            0 -1 123 -9.7572791855782270e-04</internalNodes>
          <leafValues>
            -9.2291015386581421e-01 3.4430325031280518e-01</leafValues></_>
        <_>
          <internalNodes>
            0 -1 60 2.9247677884995937e-03</internalNodes>
          <leafValues>
            -3.1142243742942810e-01 8.6738914251327515e-01</leafValues></_>
        <_>
          <internalNodes>
            0 -1 61 -8.0829514190554619e-03</internalNodes>
          <leafValues>
            9.3613779544830322e-01 -2.8735563158988953e-01</leafValues></_>
        <_>
          <internalNodes>
            0 -1 94 -2.8990157879889011e-03</internalNodes>
          <leafValues>
            7.8845024108886719e-01 -2.3540635406970978e-01</leafValues></_>
        <_>
          <internalNodes>
            0 -1 125 1.0997226927429438e-03</internalNodes>
          <leafValues>
            3.4003165364265442e-01 -8.5691672563552856e-01</leafValues></_></weakClassifiers></_>
    <!-- stage 5 -->
    <_>
      <maxWeakCount>8</maxWeakCount>
      <stageThreshold>-8.7014168500900269e-02</stageThreshold>
      <weakClassifiers>
        <_>
          <internalNodes>
            0 -1 25 2.0741003751754761e-01</internalNodes>
          <leafValues>
            7.6345360279083252e-01 -7.7499997615814209e-01</leafValues></_>
        <_>
          <internalNodes>
            0 -1 76 4.4852010905742645e-03</internalNodes>
          <leafValues>
            -1.4855712652206421e-01 9.1944688558578491e-01</leafValues></_>
        <_>
          <internalNodes>
            0 -1 88 -1.1695227585732937e-03</internalNodes>
          <leafValues>
            6.6881340742111206e-01 -2.6573577523231506e-01</leafValues></_>
        <_>
          <internalNodes>
            0 -1 74 -5.5054351687431335e-03</internalNodes>
          <leafValues>
            9.6797609329223633e-01 -2.0916248857975006e-01</leafValues></_>
        <_>
          <internalNodes>
            0 -1 116 -1.7195206601172686e-03</internalNodes>
          <leafValues>
            -7.1764433383941650e-01 3.4377977252006531e-01</leafValues></_>
        <_>
          <internalNodes>
            0 -1 72 -1.1365949176251888e-03</internalNodes>
          <leafValues>
            8.0521184206008911e-01 -2.9929026961326599e-01</leafValues></_>
        <_>
          <internalNodes>
            0 -1 71 2.2718994878232479e-03</internalNodes>
          <leafValues>
            -4.1822177171707153e-01 5.7150375843048096e-01</leafValues></_>
        <_>
          <internalNodes>
            0 -1 14 -9.2160352505743504e-04</internalNodes>
          <leafValues>
            -8.0255180597305298e-01 2.7359482645988464e-01</leafValues></_></weakClassifiers></_>
    <!-- stage 6 -->
    <_>
      <maxWeakCount>10</maxWeakCount>
      <stageThreshold>-1.0018093585968018e+00</stageThreshold>
      <weakClassifiers>
        <_>
          <internalNodes>
            0 -1 24 2.1699696779251099e-01</internalNodes>
          <leafValues>
            8.1392407417297363e-01 -2.9842931032180786e-01</leafValues></_>
        <_>
          <internalNodes>
            0 -1 78 -2.5563812814652920e-03</internalNodes>
          <leafValues>
            8.6143058538436890e-01 -7.2775587439537048e-02</leafValues></_>
        <_>
          <internalNodes>
            0 -1 60 4.8780804499983788e-03</internalNodes>
          <leafValues>
            -1.5637689828872681e-01 9.8054742813110352e-01</leafValues></_>
        <_>
          <internalNodes>
            0 -1 79 3.7503237836062908e-03</internalNodes>
          <leafValues>
            -2.1135358512401581e-01 7.1780884265899658e-01</leafValues></_>
        <_>
          <internalNodes>
            0 -1 42 2.7246838435530663e-03</internalNodes>
          <leafValues>
            -1.7379318177700043e-01 9.7721076011657715e-01</leafValues></_>
        <_>
          <internalNodes>
            0 -1 45 4.5025469735264778e-03</internalNodes>
          <leafValues>
            -1.9343958795070648e-01 8.1994169950485229e-01</leafValues></_>
        <_>
          <internalNodes>
            0 -1 6 8.7680749129503965e-04</internalNodes>
          <leafValues>
            2.8337600827217102e-01 -8.3604860305786133e-01</leafValues></_>
        <_>
          <internalNodes>
            0 -1 103 1.1626527644693851e-02</internalNodes>
          <leafValues>
            -2.4458611011505127e-01 8.2943886518478394e-01</leafValues></_>
        <_>
          <internalNodes>
            0 -1 119 9.3497277703136206e-04</internalNodes>
          <leafValues>
            2.6831287145614624e-01 -7.7911555767059326e-01</leafValues></_>
        <_>
          <internalNodes>
            0 -1 46 1.9523389637470245e-03</internalNodes>
          <leafValues>
            -2.6766890287399292e-01 7.3548889160156250e-01</leafValues></_></weakClassifiers></_>
    <!-- stage 7 -->
    <_>
      <maxWeakCount>10</maxWeakCount>
      <stageThreshold>-7.3661440610885620e-01</stageThreshold>
      <weakClassifiers>
        <_>
          <internalNodes>
            0 -1 117 1.1476884828880429e-03</internalNodes>
          <leafValues>
            7.8219014406204224e-01 -6.5137612819671631e-01</leafValues></_>
        <_>
          <internalNodes>
            0 -1 76 4.6240789815783501e-03</internalNodes>
          <leafValues>
            -1.5730321407318115e-01 9.0701907873153687e-01</leafValues></_>
        <_>
          <internalNodes>
            0 -1 3 -9.5372386276721954e-03</internalNodes>
          <leafValues>
            -5.7414191961288452e-01 4.1628569364547729e-01</leafValues></_>
        <_>
          <internalNodes>
            0 -1 85 4.5108301565051079e-03</internalNodes>
          <leafValues>
            -2.3648247122764587e-01 8.4662336111068726e-01</leafValues></_>
        <_>
          <internalNodes>
            0 -1 38 7.3336204513907433e-03</internalNodes>
          <leafValues>
            -2.1651296317577362e-01 8.6843872070312500e-01</leafValues></_>
        <_>
          <internalNodes>
            0 -1 66 4.7280541621148586e-03</internalNodes>
          <leafValues>
            -2.0878295600414276e-01 8.9255738258361816e-01</leafValues></_>
        <_>
          <internalNodes>
            0 -1 78 -1.7829893622547388e-03</internalNodes>
          <leafValues>
            6.5561062097549438e-01 -2.3938578367233276e-01</leafValues></_>
        <_>
          <internalNodes>
            0 -1 122 1.1629010550677776e-03</internalNodes>
          <leafValues>
            2.8034800291061401e-01 -8.1776118278503418e-01</leafValues></_>
        <_>
          <internalNodes>
            0 -1 68 -2.5977176846936345e-04</internalNodes>
          <leafValues>
            5.4659759998321533e-01 -3.8423997163772583e-01</leafValues></_>
        <_>
          <internalNodes>
            0 -1 112 8.9624110842123628e-04</internalNodes>
          <leafValues>
            2.1769672632217407e-01 -9.0388339757919312e-01</leafValues></_></weakClassifiers></_>
    <!-- stage 8 -->
    <_>
      <maxWeakCount>9</maxWeakCount>
      <stageThreshold>-1.9365227222442627e-01</stageThreshold>
      <weakClassifiers>
        <_>
          <internalNodes>
            0 -1 14 1.2633918086066842e-03</internalNodes>
          <leafValues>
            7.8531771898269653e-01 -2.9333332180976868e-01</leafValues></_>
        <_>
          <internalNodes>
            0 -1 76 5.3494507446885109e-03</internalNodes>
          <leafValues>
            -1.1328544467687607e-01 8.8269215822219849e-01</leafValues></_>
        <_>
          <internalNodes>
            0 -1 102 -1.8012677319347858e-03</internalNodes>
          <leafValues>
            7.3335915803909302e-01 -2.1643316745758057e-01</leafValues></_>
        <_>
          <internalNodes>
            0 -1 63 -6.8208281882107258e-03</internalNodes>
          <leafValues>
            8.3285981416702271e-01 -2.0099821686744690e-01</leafValues></_>
        <_>
          <internalNodes>
            0 -1 72 -1.9881166517734528e-03</internalNodes>
          <leafValues>
            8.6175209283828735e-01 -2.3761209845542908e-01</leafValues></_>
        <_>
          <internalNodes>
            0 -1 120 -1.1804010719060898e-03</internalNodes>
          <leafValues>
            -8.6865508556365967e-01 2.8669947385787964e-01</leafValues></_>
        <_>
          <internalNodes>
            0 -1 73 -7.1278953691944480e-04</internalNodes>
          <leafValues>
            8.7459576129913330e-01 -2.4458867311477661e-01</leafValues></_>
        <_>
          <internalNodes>
            0 -1 90 -3.1860108720138669e-04</internalNodes>
          <leafValues>
            5.6952160596847534e-01 -3.4640222787857056e-01</leafValues></_>
        <_>
          <internalNodes>
            0 -1 89 4.7396370791830122e-04</internalNodes>
          <leafValues>
            2.5637760758399963e-01 -7.7590912580490112e-01</leafValues></_></weakClassifiers></_>
    <!-- stage 9 -->
    <_>
      <maxWeakCount>12</maxWeakCount>
      <stageThreshold>-3.1881949305534363e-01</stageThreshold>
      <weakClassifiers>
        <_>
          <internalNodes>
            0 -1 29 1.4761234633624554e-03</internalNodes>
          <leafValues>
            7.7160120010375977e-01 -4.1379311680793762e-01</leafValues></_>
        <_>
          <internalNodes>
            0 -1 88 -2.1304069086909294e-03</internalNodes>
          <leafValues>
            8.6170095205307007e-01 -1.7269906401634216e-01</leafValues></_>
        <_>
          <internalNodes>
            0 -1 63 -6.4186439849436283e-03</internalNodes>
          <leafValues>
            9.4894087314605713e-01 -1.9809603691101074e-01</leafValues></_>
        <_>
          <internalNodes>
            0 -1 92 -6.0462797991931438e-03</internalNodes>
          <leafValues>
            7.6890391111373901e-01 -2.3829159140586853e-01</leafValues></_>
        <_>
          <internalNodes>
            0 -1 60 3.5094823688268661e-03</internalNodes>
          <leafValues>
            -1.9966596364974976e-01 8.4617251157760620e-01</leafValues></_>
        <_>
          <internalNodes>
            0 -1 59 -2.9554553329944611e-03</internalNodes>
          <leafValues>
            9.5487773418426514e-01 -1.6372060775756836e-01</leafValues></_>
        <_>
          <internalNodes>
            0 -1 27 -2.8045559301972389e-03</internalNodes>
          <leafValues>
            7.6478183269500732e-01 -1.9396729767322540e-01</leafValues></_>
        <_>
          <internalNodes>
            0 -1 21 -1.4409576542675495e-03</internalNodes>
          <leafValues>
            -8.5244995355606079e-01 2.5180751085281372e-01</leafValues></_>
        <_>
          <internalNodes>
            0 -1 80 3.4526875242590904e-03</internalNodes>
          <leafValues>
            -2.3041692376136780e-01 8.1494104862213135e-01</leafValues></_>
        <_>
          <internalNodes>
            0 -1 36 2.2332244552671909e-03</internalNodes>
          <leafValues>
            -1.4037197828292847e-01 9.6075648069381714e-01</leafValues></_>
        <_>
          <internalNodes>
            0 -1 105 1.1246098438277841e-03</internalNodes>
          <leafValues>
            -2.5483250617980957e-01 5.6213271617889404e-01</leafValues></_>
        <_>
          <internalNodes>
            0 -1 40 3.9774794131517410e-03</internalNodes>
          <leafValues>
            -1.8893267214298248e-01 8.5039287805557251e-01</leafValues></_></weakClassifiers></_>
    <!-- stage 10 -->
    <_>
      <maxWeakCount>8</maxWeakCount>
      <stageThreshold>-2.2965472936630249e-01</stageThreshold>
      <weakClassifiers>
        <_>
          <internalNodes>
            0 -1 118 -1.5325697604566813e-03</internalNodes>
          <leafValues>
            -3.7662336230278015e-01 7.9591834545135498e-01</leafValues></_>
        <_>
          <internalNodes>
            0 -1 130 -1.4627864584326744e-03</internalNodes>
          <leafValues>
            -4.8041367530822754e-01 5.6017446517944336e-01</leafValues></_>
        <_>
          <internalNodes>
            0 -1 75 4.0750629268586636e-03</internalNodes>
          <leafValues>
            -2.5560390949249268e-01 8.7082231044769287e-01</leafValues></_>
        <_>
          <internalNodes>
            0 -1 7 1.4631091617047787e-03</internalNodes>
          <leafValues>
            3.3160609006881714e-01 -7.6742070913314819e-01</leafValues></_>
        <_>
          <internalNodes>
            0 -1 60 4.2914524674415588e-03</internalNodes>
          <leafValues>
            -2.6478508114814758e-01 8.8925880193710327e-01</leafValues></_>
        <_>
          <internalNodes>
            0 -1 1 2.6288493536412716e-03</internalNodes>
          <leafValues>
            2.9602965712547302e-01 -7.3229372501373291e-01</leafValues></_>
        <_>
          <internalNodes>
            0 -1 74 -4.2688399553298950e-03</internalNodes>
          <leafValues>
            6.9504255056381226e-01 -3.0755206942558289e-01</leafValues></_>
        <_>
          <internalNodes>
            0 -1 95 -2.5945312809199095e-03</internalNodes>
          <leafValues>
            8.7439179420471191e-01 -2.1290048956871033e-01</leafValues></_></weakClassifiers></_>
    <!-- stage 11 -->
    <_>
      <maxWeakCount>8</maxWeakCount>
      <stageThreshold>-3.5151803493499756e-01</stageThreshold>
      <weakClassifiers>
        <_>
          <internalNodes>
            0 -1 22 1.0969269787892699e-03</internalNodes>
          <leafValues>
            7.9768431186676025e-01 -6.1538463830947876e-01</leafValues></_>
        <_>
          <internalNodes>
            0 -1 18 -1.3047812972217798e-03</internalNodes>
          <leafValues>
            -8.1261384487152100e-01 4.2987543344497681e-01</leafValues></_>
        <_>
          <internalNodes>
            0 -1 90 -2.4667710531502962e-03</internalNodes>
          <leafValues>
            7.6168775558471680e-01 -2.6991182565689087e-01</leafValues></_>
        <_>
          <internalNodes>
            0 -1 121 -2.5687054730951786e-03</internalNodes>
          <leafValues>
            -6.8301987648010254e-01 3.0156835913658142e-01</leafValues></_>
        <_>
          <internalNodes>
            0 -1 53 -5.9392522089183331e-03</internalNodes>
          <leafValues>
            8.2257938385009766e-01 -2.2574698925018311e-01</leafValues></_>
        <_>
          <internalNodes>
            0 -1 82 3.1800195574760437e-02</internalNodes>
          <leafValues>
            -1.8545413017272949e-01 9.8308891057968140e-01</leafValues></_>
        <_>
          <internalNodes>
            0 -1 12 1.3456114102154970e-03</internalNodes>
          <leafValues>
            2.8040888905525208e-01 -7.5865375995635986e-01</leafValues></_>
        <_>
          <internalNodes>
            0 -1 65 4.3457271531224251e-03</internalNodes>
          <leafValues>
            -2.3745281994342804e-01 8.5964709520339966e-01</leafValues></_></weakClassifiers></_>
    <!-- stage 12 -->
    <_>
      <maxWeakCount>7</maxWeakCount>
      <stageThreshold>6.1620236374437809e-03</stageThreshold>
      <weakClassifiers>
        <_>
          <internalNodes>
            0 -1 131 -1.0543169919401407e-03</internalNodes>
          <leafValues>
            -7.9310345649719238e-01 7.9818731546401978e-01</leafValues></_>
        <_>
          <internalNodes>
            0 -1 127 -2.2550350986421108e-03</internalNodes>
          <leafValues>
            -6.8592315912246704e-01 4.5845973491668701e-01</leafValues></_>
        <_>
          <internalNodes>
            0 -1 76 7.5132278725504875e-03</internalNodes>
          <leafValues>
            -2.2138506174087524e-01 9.2929393053054810e-01</leafValues></_>
        <_>
          <internalNodes>
            0 -1 43 -1.0849279351532459e-03</internalNodes>
          <leafValues>
            -7.4287039041519165e-01 2.8322306275367737e-01</leafValues></_>
        <_>
          <internalNodes>
            0 -1 42 2.8317491523921490e-03</internalNodes>
          <leafValues>
            -2.1854384243488312e-01 8.9697557687759399e-01</leafValues></_>
        <_>
          <internalNodes>
            0 -1 64 3.2137362286448479e-03</internalNodes>
          <leafValues>
            -1.5478843450546265e-01 8.5732710361480713e-01</leafValues></_>
        <_>
          <internalNodes>
            0 -1 19 1.1979090049862862e-03</internalNodes>
          <leafValues>
            2.0539212226867676e-01 -8.8515645265579224e-01</leafValues></_></weakClassifiers></_>
    <!-- stage 13 -->
    <_>
      <maxWeakCount>11</maxWeakCount>
      <stageThreshold>-2.2141684591770172e-01</stageThreshold>
      <weakClassifiers>
        <_>
          <internalNodes>
            0 -1 17 1.3872048258781433e-01</internalNodes>
          <leafValues>
            7.8549665212631226e-01 -4.6153846383094788e-01</leafValues></_>
        <_>
          <internalNodes>
            0 -1 28 -3.0417654197663069e-03</internalNodes>
          <leafValues>
            -6.0318744182586670e-01 4.6349707245826721e-01</leafValues></_>
        <_>
          <internalNodes>
            0 -1 97 8.1180278211832047e-03</internalNodes>
          <leafValues>
            -1.7989961802959442e-01 9.2550045251846313e-01</leafValues></_>
        <_>
          <internalNodes>
            0 -1 34 -6.5186582505702972e-02</internalNodes>
          <leafValues>
            -6.5731322765350342e-01 2.9768294095993042e-01</leafValues></_>
        <_>
          <internalNodes>
            0 -1 63 -6.9495136849582195e-03</internalNodes>
          <leafValues>
            7.7013796567916870e-01 -3.1313827633857727e-01</leafValues></_>
        <_>
          <internalNodes>
            0 -1 84 1.9366466440260410e-03</internalNodes>
          <leafValues>
            3.6637896299362183e-01 -5.1563894748687744e-01</leafValues></_>
        <_>
          <internalNodes>
            0 -1 86 3.6452515050768852e-03</internalNodes>
          <leafValues>
            -2.3835398256778717e-01 9.4525766372680664e-01</leafValues></_>
        <_>
          <internalNodes>
            0 -1 86 -3.5294081317260861e-04</internalNodes>
          <leafValues>
            5.3996479511260986e-01 -3.0796995759010315e-01</leafValues></_>
        <_>
          <internalNodes>
            0 -1 15 -8.9178408961743116e-04</internalNodes>
          <leafValues>
            -9.5157259702682495e-01 2.3213736712932587e-01</leafValues></_>
        <_>
          <internalNodes>
            0 -1 57 -4.8138131387531757e-03</internalNodes>
          <leafValues>
            7.9429703950881958e-01 -3.0146342515945435e-01</leafValues></_>
        <_>
          <internalNodes>
            0 -1 23 -8.1248430069535971e-04</internalNodes>
          <leafValues>
            -8.1493121385574341e-01 2.5533366203308105e-01</leafValues></_></weakClassifiers></_>
    <!-- stage 14 -->
    <_>
      <maxWeakCount>9</maxWeakCount>
      <stageThreshold>-4.0918815881013870e-02</stageThreshold>
      <weakClassifiers>
        <_>
          <internalNodes>
            0 -1 126 1.4789757551625371e-03</internalNodes>
          <leafValues>
            7.9524677991867065e-01 -5.8461540937423706e-01</leafValues></_>
        <_>
          <internalNodes>
            0 -1 71 1.5864954330027103e-03</internalNodes>
          <leafValues>
            -2.7624890208244324e-01 6.3700383901596069e-01</leafValues></_>
        <_>
          <internalNodes>
            0 -1 60 2.8962753713130951e-03</internalNodes>
          <leafValues>
            -2.9001176357269287e-01 7.5399976968765259e-01</leafValues></_>
        <_>
          <internalNodes>
            0 -1 107 -1.4634219696745276e-03</internalNodes>
          <leafValues>
            -7.3962265253067017e-01 2.8993871808052063e-01</leafValues></_>
        <_>
          <internalNodes>
            0 -1 56 6.3884314149618149e-03</internalNodes>
          <leafValues>
            -2.8450998663902283e-01 7.8741282224655151e-01</leafValues></_>
        <_>
          <internalNodes>
            0 -1 93 -5.1957564428448677e-03</internalNodes>
          <leafValues>
            8.2152009010314941e-01 -2.0085221529006958e-01</leafValues></_>
        <_>
          <internalNodes>
            0 -1 124 2.0050343591719866e-03</internalNodes>
          <leafValues>
            2.8666701912879944e-01 -6.8681198358535767e-01</leafValues></_>
        <_>
          <internalNodes>
            0 -1 75 1.1071278713643551e-03</internalNodes>
          <leafValues>
            -5.0456821918487549e-01 3.7992358207702637e-01</leafValues></_>
        <_>
          <internalNodes>
            0 -1 131 8.8354427134618163e-04</internalNodes>
          <leafValues>
            2.3240691423416138e-01 -9.8368567228317261e-01</leafValues></_></weakClassifiers></_>
    <!-- stage 15 -->
    <_>
      <maxWeakCount>8</maxWeakCount>
      <stageThreshold>1.0050801932811737e-01</stageThreshold>
      <weakClassifiers>
        <_>
          <internalNodes>
            0 -1 11 2.9763606190681458e-01</internalNodes>
          <leafValues>
            8.2017010450363159e-01 -9.6799999475479126e-01</leafValues></_>
        <_>
          <internalNodes>
            0 -1 76 2.7244752272963524e-03</internalNodes>
          <leafValues>
            -1.9344782829284668e-01 8.8726615905761719e-01</leafValues></_>
        <_>
          <internalNodes>
            0 -1 33 -2.9218872077763081e-03</internalNodes>
          <leafValues>
            8.3436918258666992e-01 -2.7182400226593018e-01</leafValues></_>
        <_>
          <internalNodes>
            0 -1 81 2.6389905251562595e-03</internalNodes>
          <leafValues>
            -2.2747933864593506e-01 9.5643645524978638e-01</leafValues></_>
        <_>
          <internalNodes>
            0 -1 74 -2.8967435937374830e-03</internalNodes>
          <leafValues>
            8.3147943019866943e-01 -2.9675370454788208e-01</leafValues></_>
        <_>
          <internalNodes>
            0 -1 77 -2.0568519830703735e-03</internalNodes>
          <leafValues>
            9.2382663488388062e-01 -2.9183247685432434e-01</leafValues></_>
        <_>
          <internalNodes>
            0 -1 93 -2.1051766816526651e-03</internalNodes>
          <leafValues>
            8.1819796562194824e-01 -2.0304496586322784e-01</leafValues></_>
        <_>
          <internalNodes>
            0 -1 99 2.3196486290544271e-03</internalNodes>
          <leafValues>
            -2.7417522668838501e-01 7.6472026109695435e-01</leafValues></_></weakClassifiers></_>
    <!-- stage 16 -->
    <_>
      <maxWeakCount>8</maxWeakCount>
      <stageThreshold>2.0972108840942383e-01</stageThreshold>
      <weakClassifiers>
        <_>
          <internalNodes>
            0 -1 8 4.5996762812137604e-02</internalNodes>
          <leafValues>
            8.0299252271652222e-01 -3.5329341888427734e-01</leafValues></_>
        <_>
          <internalNodes>
            0 -1 128 -3.5565877333283424e-03</internalNodes>
          <leafValues>
            -7.1382755041122437e-01 4.4482713937759399e-01</leafValues></_>
        <_>
          <internalNodes>
            0 -1 26 2.4099633097648621e-02</internalNodes>
          <leafValues>
            2.5728091597557068e-01 -7.4047690629959106e-01</leafValues></_>
        <_>
          <internalNodes>
            0 -1 88 -5.6452164426445961e-03</internalNodes>
          <leafValues>
            8.8194626569747925e-01 -2.3552191257476807e-01</leafValues></_>
        <_>
          <internalNodes>
            0 -1 114 -1.5575193101540208e-03</internalNodes>
          <leafValues>
            -8.7421810626983643e-01 2.3958143591880798e-01</leafValues></_>
        <_>
          <internalNodes>
            0 -1 48 2.3158797994256020e-03</internalNodes>
          <leafValues>
            -2.3428690433502197e-01 9.2117774486541748e-01</leafValues></_>
        <_>
          <internalNodes>
            0 -1 55 -8.1495456397533417e-03</internalNodes>
          <leafValues>
            9.1553288698196411e-01 -1.7839157581329346e-01</leafValues></_>
        <_>
          <internalNodes>
            0 -1 20 -1.3267137110233307e-03</internalNodes>
          <leafValues>
            -7.8356117010116577e-01 2.7189415693283081e-01</leafValues></_></weakClassifiers></_>
    <!-- stage 17 -->
    <_>
      <maxWeakCount>11</maxWeakCount>
      <stageThreshold>-5.2315652370452881e-01</stageThreshold>
      <weakClassifiers>
        <_>
          <internalNodes>
            0 -1 58 -2.8810482472181320e-02</internalNodes>
          <leafValues>
            -9.3548387289047241e-01 7.5307196378707886e-01</leafValues></_>
        <_>
          <internalNodes>
            0 -1 96 4.5401568058878183e-04</internalNodes>
          <leafValues>
            4.3661478161811829e-01 -7.2929763793945312e-01</leafValues></_>
        <_>
          <internalNodes>
            0 -1 53 1.3424096629023552e-02</internalNodes>
          <leafValues>
            -2.2397355735301971e-01 9.4879561662673950e-01</leafValues></_>
        <_>
          <internalNodes>
            0 -1 39 -2.1153740584850311e-02</internalNodes>
          <leafValues>
            -6.3186216354370117e-01 2.8868499398231506e-01</leafValues></_>
        <_>
          <internalNodes>
            0 -1 60 -7.5319884344935417e-03</internalNodes>
          <leafValues>
            9.9242603778839111e-01 -2.4186956882476807e-01</leafValues></_>
        <_>
          <internalNodes>
            0 -1 104 -9.2731546610593796e-03</internalNodes>
          <leafValues>
            4.6849593520164490e-01 -3.7793484330177307e-01</leafValues></_>
        <_>
          <internalNodes>
            0 -1 87 -1.6063395887613297e-02</internalNodes>
          <leafValues>
            -6.8802964687347412e-01 2.4017025530338287e-01</leafValues></_>
        <_>
          <internalNodes>
            0 -1 9 3.2991006970405579e-02</internalNodes>
          <leafValues>
            2.6825311779975891e-01 -5.9765619039535522e-01</leafValues></_>
        <_>
          <internalNodes>
            0 -1 37 2.0952760241925716e-03</internalNodes>
          <leafValues>
            -2.4937346577644348e-01 6.4483428001403809e-01</leafValues></_>
        <_>
          <internalNodes>
            0 -1 49 1.9303819863125682e-03</internalNodes>
          <leafValues>
            2.3107279837131500e-01 -6.6876769065856934e-01</leafValues></_>
        <_>
          <internalNodes>
            0 -1 13 -9.6573011251166463e-04</internalNodes>
          <leafValues>
            -7.4394530057907104e-01 1.7251466214656830e-01</leafValues></_></weakClassifiers></_>
    <!-- stage 18 -->
    <_>
      <maxWeakCount>10</maxWeakCount>
      <stageThreshold>-8.7932869791984558e-02</stageThreshold>
      <weakClassifiers>
        <_>
          <internalNodes>
            0 -1 52 8.9401402510702610e-04</internalNodes>
          <leafValues>
            7.6004725694656372e-01 -7.2151899337768555e-01</leafValues></_>
        <_>
          <internalNodes>
            0 -1 5 -5.7757963077165186e-05</internalNodes>
          <leafValues>
            5.5909001827239990e-01 -2.2939881682395935e-01</leafValues></_>
        <_>
          <internalNodes>
            0 -1 78 -4.7906329855322838e-03</internalNodes>
          <leafValues>
            8.0866497755050659e-01 -1.7607049643993378e-01</leafValues></_>
        <_>
          <internalNodes>
            0 -1 108 -5.4921619594097137e-03</internalNodes>
          <leafValues>
            7.8752791881561279e-01 -1.8469561636447906e-01</leafValues></_>
        <_>
          <internalNodes>
            0 -1 99 4.0678083896636963e-03</internalNodes>
          <leafValues>
            -1.7055687308311462e-01 8.4095376729965210e-01</leafValues></_>
        <_>
          <internalNodes>
            0 -1 113 1.3425815850496292e-03</internalNodes>
          <leafValues>
            1.9458988308906555e-01 -8.9235287904739380e-01</leafValues></_>
        <_>
          <internalNodes>
            0 -1 10 -5.9714116156101227e-02</internalNodes>
          <leafValues>
            -7.8968727588653564e-01 1.9444364309310913e-01</leafValues></_>
        <_>
          <internalNodes>
            0 -1 94 -6.3410350121557713e-03</internalNodes>
          <leafValues>
            7.8184676170349121e-01 -2.3295560479164124e-01</leafValues></_>
        <_>
          <internalNodes>
            0 -1 67 7.9515483230352402e-03</internalNodes>
          <leafValues>
            -1.9850307703018188e-01 8.1237584352493286e-01</leafValues></_>
        <_>
          <internalNodes>
            0 -1 30 -1.2134895659983158e-03</internalNodes>
          <leafValues>
            -6.7165499925613403e-01 2.5301614403724670e-01</leafValues></_></weakClassifiers></_>
    <!-- stage 19 -->
    <_>
      <maxWeakCount>11</maxWeakCount>
      <stageThreshold>-2.0406989753246307e-01</stageThreshold>
      <weakClassifiers>
        <_>
          <internalNodes>
            0 -1 83 9.3645084416493773e-04</internalNodes>
          <leafValues>
            7.7683442831039429e-01 -4.2622950673103333e-01</leafValues></_>
        <_>
          <internalNodes>
            0 -1 100 -4.0510413236916065e-03</internalNodes>
          <leafValues>
            8.7882173061370850e-01 2.5256420485675335e-03</leafValues></_>
        <_>
          <internalNodes>
            0 -1 98 7.0385113358497620e-03</internalNodes>
          <leafValues>
            -1.6025906801223755e-01 7.7268612384796143e-01</leafValues></_>
        <_>
          <internalNodes>
            0 -1 78 -6.2469244003295898e-03</internalNodes>
          <leafValues>
            9.2086207866668701e-01 -1.5743701159954071e-01</leafValues></_>
        <_>
          <internalNodes>
            0 -1 54 1.1732213199138641e-02</internalNodes>
          <leafValues>
            -1.6883641481399536e-01 8.4573531150817871e-01</leafValues></_>
        <_>
          <internalNodes>
            0 -1 47 1.9793601240962744e-03</internalNodes>
          <leafValues>
            -1.8573065102100372e-01 8.5109072923660278e-01</leafValues></_>
        <_>
          <internalNodes>
            0 -1 44 -1.2757265940308571e-03</internalNodes>
          <leafValues>
            -7.9347383975982666e-01 2.4287475645542145e-01</leafValues></_>
        <_>
          <internalNodes>
            0 -1 35 7.9396448563784361e-04</internalNodes>
          <leafValues>
            -2.6340073347091675e-01 6.2518376111984253e-01</leafValues></_>
        <_>
          <internalNodes>
            0 -1 41 4.8013613559305668e-03</internalNodes>
          <leafValues>
            -1.5824650228023529e-01 9.2908179759979248e-01</leafValues></_>
        <_>
          <internalNodes>
            0 -1 41 -1.0599154047667980e-03</internalNodes>
          <leafValues>
            6.1330318450927734e-01 -2.0450292527675629e-01</leafValues></_>
        <_>
          <internalNodes>
            0 -1 4 1.9316906109452248e-03</internalNodes>
          <leafValues>
            2.3216110467910767e-01 -7.6401442289352417e-01</leafValues></_></weakClassifiers></_></stages>
  <features>
    <_>
      <rects>
        <_>
          0 0 1 3 -1.</_>
        <_>
          0 1 1 1 3.</_></rects>
      <tilted>0</tilted></_>
    <_>
      <rects>
        <_>
          0 0 4 6 -1.</_>
        <_>
          0 2 4 2 3.</_></rects>
      <tilted>0</tilted></_>
    <_>
      <rects>
        <_>
          0 1 1 2 -1.</_>
        <_>
          0 2 1 1 2.</_></rects>
      <tilted>0</tilted></_>
    <_>
      <rects>
        <_>
          0 1 1 16 -1.</_>
        <_>
          0 9 1 8 2.</_></rects>
      <tilted>0</tilted></_>
    <_>
      <rects>
        <_>
          0 2 1 9 -1.</_>
        <_>
          0 5 1 3 3.</_></rects>
      <tilted>0</tilted></_>
    <_>
      <rects>
        <_>
          0 2 6 5 -1.</_>
        <_>
          3 2 3 5 2.</_></rects>
      <tilted>0</tilted></_>
    <_>
      <rects>
        <_>
          0 4 3 2 -1.</_>
        <_>
          0 5 3 1 2.</_></rects>
      <tilted>0</tilted></_>
    <_>
      <rects>
        <_>
          0 6 1 9 -1.</_>
        <_>
          0 9 1 3 3.</_></rects>
      <tilted>0</tilted></_>
    <_>
      <rects>
        <_>
          0 6 15 14 -1.</_>
        <_>
          5 6 5 14 3.</_></rects>
      <tilted>0</tilted></_>
    <_>
      <rects>
        <_>
          0 7 19 12 -1.</_>
        <_>
          0 13 19 6 2.</_></rects>
      <tilted>0</tilted></_>
    <_>
      <rects>
        <_>
          0 9 18 6 -1.</_>
        <_>
          6 9 6 6 3.</_></rects>
      <tilted>0</tilted></_>
    <_>
      <rects>
        <_>
          0 9 24 9 -1.</_>
        <_>
          8 9 8 9 3.</_></rects>
      <tilted>0</tilted></_>
    <_>
      <rects>
        <_>
          0 10 1 6 -1.</_>
        <_>
          0 12 1 2 3.</_></rects>
      <tilted>0</tilted></_>
    <_>
      <rects>
        <_>
          0 14 1 6 -1.</_>
        <_>
          0 16 1 2 3.</_></rects>
      <tilted>0</tilted></_>
    <_>
      <rects>
        <_>
          0 20 3 3 -1.</_>
        <_>
          0 21 3 1 3.</_></rects>
      <tilted>0</tilted></_>
    <_>
      <rects>
        <_>
          0 23 3 1 -1.</_>
        <_>
          1 23 1 1 3.</_></rects>
      <tilted>0</tilted></_>
    <_>
      <rects>
        <_>
          1 0 3 3 -1.</_>
        <_>
          1 1 3 1 3.</_></rects>
      <tilted>0</tilted></_>
    <_>
      <rects>
        <_>
          1 11 18 8 -1.</_>
        <_>
          10 11 9 8 2.</_></rects>
      <tilted>0</tilted></_>
    <_>
      <rects>
        <_>
          1 18 3 3 -1.</_>
        <_>
          2 18 1 3 3.</_></rects>
      <tilted>0</tilted></_>
    <_>
      <rects>
        <_>
          1 19 3 2 -1.</_>
        <_>
          2 19 1 2 3.</_></rects>
      <tilted>0</tilted></_>
    <_>
      <rects>
        <_>
          2 2 3 4 -1.</_>
        <_>
          3 2 1 4 3.</_></rects>
      <tilted>0</tilted></_>
    <_>
      <rects>
        <_>
          2 3 3 4 -1.</_>
        <_>
          3 3 1 4 3.</_></rects>
      <tilted>0</tilted></_>
    <_>
      <rects>
        <_>
          2 4 3 2 -1.</_>
        <_>
          3 4 1 2 3.</_></rects>
      <tilted>0</tilted></_>
    <_>
      <rects>
        <_>
          2 22 2 2 -1.</_>
        <_>
          3 22 1 2 2.</_></rects>
      <tilted>0</tilted></_>
    <_>
      <rects>
        <_>
          3 1 18 20 -1.</_>
        <_>
          12 1 9 20 2.</_></rects>
      <tilted>0</tilted></_>
    <_>
      <rects>
        <_>
          3 4 12 20 -1.</_>
        <_>
          3 14 12 10 2.</_></rects>
      <tilted>0</tilted></_>
    <_>
      <rects>
        <_>
          3 11 21 8 -1.</_>
        <_>
          3 15 21 4 2.</_></rects>
      <tilted>0</tilted></_>
    <_>
      <rects>
        <_>
          3 16 6 2 -1.</_>
        <_>
          3 16 3 1 2.</_>
        <_>
          6 17 3 1 2.</_></rects>
      <tilted>0</tilted></_>
    <_>
      <rects>
        <_>
          4 0 15 1 -1.</_>
        <_>
          9 0 5 1 3.</_></rects>
      <tilted>0</tilted></_>
    <_>
      <rects>
        <_>
          4 18 2 3 -1.</_>
        <_>
          5 18 1 3 2.</_></rects>
      <tilted>0</tilted></_>
    <_>
      <rects>
        <_>
          4 19 3 4 -1.</_>
        <_>
          5 19 1 4 3.</_></rects>
      <tilted>0</tilted></_>
    <_>
      <rects>
        <_>
          5 0 13 24 -1.</_>
        <_>
          5 12 13 12 2.</_></rects>
      <tilted>0</tilted></_>
    <_>
      <rects>
        <_>
          5 8 12 9 -1.</_>
        <_>
          11 8 6 9 2.</_></rects>
      <tilted>0</tilted></_>
    <_>
      <rects>
        <_>
          5 10 10 3 -1.</_>
        <_>
          5 11 10 1 3.</_></rects>
      <tilted>0</tilted></_>
    <_>
      <rects>
        <_>
          5 13 16 9 -1.</_>
        <_>
          13 13 8 9 2.</_></rects>
      <tilted>0</tilted></_>
    <_>
      <rects>
        <_>
          5 14 2 8 -1.</_>
        <_>
          5 14 1 4 2.</_>
        <_>
          6 18 1 4 2.</_></rects>
      <tilted>0</tilted></_>
    <_>
      <rects>
        <_>
          5 15 2 2 -1.</_>
        <_>
          5 15 1 1 2.</_>
        <_>
          6 16 1 1 2.</_></rects>
      <tilted>0</tilted></_>
    <_>
      <rects>
        <_>
          5 17 4 1 -1.</_>
        <_>
          7 17 2 1 2.</_></rects>
      <tilted>0</tilted></_>
    <_>
      <rects>
        <_>
          5 18 9 1 -1.</_>
        <_>
          8 18 3 1 3.</_></rects>
      <tilted>0</tilted></_>
    <_>
      <rects>
        <_>
          6 7 12 8 -1.</_>
        <_>
          6 11 12 4 2.</_></rects>
      <tilted>0</tilted></_>
    <_>
      <rects>
        <_>
          6 12 6 1 -1.</_>
        <_>
          8 12 2 1 3.</_></rects>
      <tilted>0</tilted></_>
    <_>
      <rects>
        <_>
          6 15 2 4 -1.</_>
        <_>
          6 15 1 2 2.</_>
        <_>
          7 17 1 2 2.</_></rects>
      <tilted>0</tilted></_>
    <_>
      <rects>
        <_>
          6 16 2 2 -1.</_>
        <_>
          6 16 1 1 2.</_>
        <_>
          7 17 1 1 2.</_></rects>
      <tilted>0</tilted></_>
    <_>
      <rects>
        <_>
          7 9 1 4 -1.</_>
        <_>
          7 11 1 2 2.</_></rects>
      <tilted>0</tilted></_>
    <_>
      <rects>
        <_>
          7 11 2 3 -1.</_>
        <_>
          7 12 2 1 3.</_></rects>
      <tilted>0</tilted></_>
    <_>
      <rects>
        <_>
          7 15 4 4 -1.</_>
        <_>
          7 15 2 2 2.</_>
        <_>
          9 17 2 2 2.</_></rects>
      <tilted>0</tilted></_>
    <_>
      <rects>
        <_>
          7 16 2 4 -1.</_>
        <_>
          7 16 1 2 2.</_>
        <_>
          8 18 1 2 2.</_></rects>
      <tilted>0</tilted></_>
    <_>
      <rects>
        <_>
          7 17 2 2 -1.</_>
        <_>
          7 17 1 1 2.</_>
        <_>
          8 18 1 1 2.</_></rects>
      <tilted>0</tilted></_>
    <_>
      <rects>
        <_>
          7 18 2 1 -1.</_>
        <_>
          8 18 1 1 2.</_></rects>
      <tilted>0</tilted></_>
    <_>
      <rects>
        <_>
          8 0 9 1 -1.</_>
        <_>
          11 0 3 1 3.</_></rects>
      <tilted>0</tilted></_>
    <_>
      <rects>
        <_>
          8 1 10 23 -1.</_>
        <_>
          13 1 5 23 2.</_></rects>
      <tilted>0</tilted></_>
    <_>
      <rects>
        <_>
          8 10 6 3 -1.</_>
        <_>
          10 10 2 3 3.</_></rects>
      <tilted>0</tilted></_>
    <_>
      <rects>
        <_>
          8 11 1 3 -1.</_>
        <_>
          8 12 1 1 3.</_></rects>
      <tilted>0</tilted></_>
    <_>
      <rects>
        <_>
          8 12 6 1 -1.</_>
        <_>
          10 12 2 1 3.</_></rects>
      <tilted>0</tilted></_>
    <_>
      <rects>
        <_>
          8 16 6 4 -1.</_>
        <_>
          8 16 3 2 2.</_>
        <_>
          11 18 3 2 2.</_></rects>
      <tilted>0</tilted></_>
    <_>
      <rects>
        <_>
          8 17 4 4 -1.</_>
        <_>
          8 17 2 2 2.</_>
        <_>
          10 19 2 2 2.</_></rects>
      <tilted>0</tilted></_>
    <_>
      <rects>
        <_>
          9 7 3 4 -1.</_>
        <_>
          10 7 1 4 3.</_></rects>
      <tilted>0</tilted></_>
    <_>
      <rects>
        <_>
          9 9 3 2 -1.</_>
        <_>
          10 9 1 2 3.</_></rects>
      <tilted>0</tilted></_>
    <_>
      <rects>
        <_>
          9 10 8 4 -1.</_>
        <_>
          13 10 4 4 2.</_></rects>
      <tilted>0</tilted></_>
    <_>
      <rects>
        <_>
          9 11 2 1 -1.</_>
        <_>
          10 11 1 1 2.</_></rects>
      <tilted>0</tilted></_>
    <_>
      <rects>
        <_>
          9 11 3 1 -1.</_>
        <_>
          10 11 1 1 3.</_></rects>
      <tilted>0</tilted></_>
    <_>
      <rects>
        <_>
          9 11 3 2 -1.</_>
        <_>
          10 11 1 2 3.</_></rects>
      <tilted>0</tilted></_>
    <_>
      <rects>
        <_>
          9 11 3 3 -1.</_>
        <_>
          10 11 1 3 3.</_></rects>
      <tilted>0</tilted></_>
    <_>
      <rects>
        <_>
          9 12 3 1 -1.</_>
        <_>
          10 12 1 1 3.</_></rects>
      <tilted>0</tilted></_>
    <_>
      <rects>
        <_>
          9 17 1 3 -1.</_>
        <_>
          9 18 1 1 3.</_></rects>
      <tilted>0</tilted></_>
    <_>
      <rects>
        <_>
          9 18 4 2 -1.</_>
        <_>
          9 18 2 1 2.</_>
        <_>
          11 19 2 1 2.</_></rects>
      <tilted>0</tilted></_>
    <_>
      <rects>
        <_>
          10 6 3 2 -1.</_>
        <_>
          11 6 1 2 3.</_></rects>
      <tilted>0</tilted></_>
    <_>
      <rects>
        <_>
          10 8 2 6 -1.</_>
        <_>
          10 8 1 3 2.</_>
        <_>
          11 11 1 3 2.</_></rects>
      <tilted>0</tilted></_>
    <_>
      <rects>
        <_>
          10 9 1 3 -1.</_>
        <_>
          10 10 1 1 3.</_></rects>
      <tilted>0</tilted></_>
    <_>
      <rects>
        <_>
          10 9 3 2 -1.</_>
        <_>
          11 9 1 2 3.</_></rects>
      <tilted>0</tilted></_>
    <_>
      <rects>
        <_>
          10 9 2 4 -1.</_>
        <_>
          10 9 1 2 2.</_>
        <_>
          11 11 1 2 2.</_></rects>
      <tilted>0</tilted></_>
    <_>
      <rects>
        <_>
          10 10 3 3 -1.</_>
        <_>
          11 10 1 3 3.</_></rects>
      <tilted>0</tilted></_>
    <_>
      <rects>
        <_>
          10 11 2 1 -1.</_>
        <_>
          11 11 1 1 2.</_></rects>
      <tilted>0</tilted></_>
    <_>
      <rects>
        <_>
          10 11 2 2 -1.</_>
        <_>
          10 11 1 1 2.</_>
        <_>
          11 12 1 1 2.</_></rects>
      <tilted>0</tilted></_>
    <_>
      <rects>
        <_>
          10 11 2 4 -1.</_>
        <_>
          10 11 1 2 2.</_>
        <_>
          11 13 1 2 2.</_></rects>
      <tilted>0</tilted></_>
    <_>
      <rects>
        <_>
          10 12 2 1 -1.</_>
        <_>
          11 12 1 1 2.</_></rects>
      <tilted>0</tilted></_>
    <_>
      <rects>
        <_>
          10 12 3 1 -1.</_>
        <_>
          11 12 1 1 3.</_></rects>
      <tilted>0</tilted></_>
    <_>
      <rects>
        <_>
          10 12 1 3 -1.</_>
        <_>
          10 13 1 1 3.</_></rects>
      <tilted>0</tilted></_>
    <_>
      <rects>
        <_>
          10 12 2 2 -1.</_>
        <_>
          10 12 1 1 2.</_>
        <_>
          11 13 1 1 2.</_></rects>
      <tilted>0</tilted></_>
    <_>
      <rects>
        <_>
          10 12 2 4 -1.</_>
        <_>
          11 12 1 4 2.</_></rects>
      <tilted>0</tilted></_>
    <_>
      <rects>
        <_>
          10 12 4 2 -1.</_>
        <_>
          10 12 2 1 2.</_>
        <_>
          12 13 2 1 2.</_></rects>
      <tilted>0</tilted></_>
    <_>
      <rects>
        <_>
          10 12 3 3 -1.</_>
        <_>
          10 13 3 1 3.</_></rects>
      <tilted>0</tilted></_>
    <_>
      <rects>
        <_>
          10 13 9 3 -1.</_>
        <_>
          13 13 3 3 3.</_></rects>
      <tilted>0</tilted></_>
    <_>
      <rects>
        <_>
          10 15 3 1 -1.</_>
        <_>
          11 15 1 1 3.</_></rects>
      <tilted>0</tilted></_>
    <_>
      <rects>
        <_>
          10 16 10 1 -1.</_>
        <_>
          15 16 5 1 2.</_></rects>
      <tilted>0</tilted></_>
    <_>
      <rects>
        <_>
          11 5 3 3 -1.</_>
        <_>
          12 5 1 3 3.</_></rects>
      <tilted>0</tilted></_>
    <_>
      <rects>
        <_>
          11 8 3 1 -1.</_>
        <_>
          12 8 1 1 3.</_></rects>
      <tilted>0</tilted></_>
    <_>
      <rects>
        <_>
          11 9 8 4 -1.</_>
        <_>
          15 9 4 4 2.</_></rects>
      <tilted>0</tilted></_>
    <_>
      <rects>
        <_>
          11 10 1 3 -1.</_>
        <_>
          11 11 1 1 3.</_></rects>
      <tilted>0</tilted></_>
    <_>
      <rects>
        <_>
          11 11 3 1 -1.</_>
        <_>
          12 11 1 1 3.</_></rects>
      <tilted>0</tilted></_>
    <_>
      <rects>
        <_>
          11 11 2 2 -1.</_>
        <_>
          11 11 1 1 2.</_>
        <_>
          12 12 1 1 2.</_></rects>
      <tilted>0</tilted></_>
    <_>
      <rects>
        <_>
          11 11 9 6 -1.</_>
        <_>
          14 11 3 6 3.</_></rects>
      <tilted>0</tilted></_>
    <_>
      <rects>
        <_>
          11 13 4 10 -1.</_>
        <_>
          11 13 2 5 2.</_>
        <_>
          13 18 2 5 2.</_></rects>
      <tilted>0</tilted></_>
    <_>
      <rects>
        <_>
          12 6 3 3 -1.</_>
        <_>
          13 6 1 3 3.</_></rects>
      <tilted>0</tilted></_>
    <_>
      <rects>
        <_>
          12 7 3 2 -1.</_>
        <_>
          13 7 1 2 3.</_></rects>
      <tilted>0</tilted></_>
    <_>
      <rects>
        <_>
          12 9 3 1 -1.</_>
        <_>
          13 9 1 1 3.</_></rects>
      <tilted>0</tilted></_>
    <_>
      <rects>
        <_>
          12 11 2 1 -1.</_>
        <_>
          13 11 1 1 2.</_></rects>
      <tilted>0</tilted></_>
    <_>
      <rects>
        <_>
          12 14 6 1 -1.</_>
        <_>
          14 14 2 1 3.</_></rects>
      <tilted>0</tilted></_>
    <_>
      <rects>
        <_>
          13 3 2 8 -1.</_>
        <_>
          13 3 1 4 2.</_>
        <_>
          14 7 1 4 2.</_></rects>
      <tilted>0</tilted></_>
    <_>
      <rects>
        <_>
          13 7 2 4 -1.</_>
        <_>
          13 7 1 2 2.</_>
        <_>
          14 9 1 2 2.</_></rects>
      <tilted>0</tilted></_>
    <_>
      <rects>
        <_>
          13 8 3 2 -1.</_>
        <_>
          14 8 1 2 3.</_></rects>
      <tilted>0</tilted></_>
    <_>
      <rects>
        <_>
          13 11 4 4 -1.</_>
        <_>
          13 11 2 2 2.</_>
        <_>
          15 13 2 2 2.</_></rects>
      <tilted>0</tilted></_>
    <_>
      <rects>
        <_>
          13 12 6 2 -1.</_>
        <_>
          13 12 3 1 2.</_>
        <_>
          16 13 3 1 2.</_></rects>
      <tilted>0</tilted></_>
    <_>
      <rects>
        <_>
          14 9 1 12 -1.</_>
        <_>
          14 13 1 4 3.</_></rects>
      <tilted>0</tilted></_>
    <_>
      <rects>
        <_>
          14 10 6 6 -1.</_>
        <_>
          17 10 3 6 2.</_></rects>
      <tilted>0</tilted></_>
    <_>
      <rects>
        <_>
          14 11 3 4 -1.</_>
        <_>
          15 11 1 4 3.</_></rects>
      <tilted>0</tilted></_>
    <_>
      <rects>
        <_>
          15 1 9 20 -1.</_>
        <_>
          15 11 9 10 2.</_></rects>
      <tilted>0</tilted></_>
    <_>
      <rects>
        <_>
          15 18 6 1 -1.</_>
        <_>
          17 18 2 1 3.</_></rects>
      <tilted>0</tilted></_>
    <_>
      <rects>
        <_>
          16 7 2 8 -1.</_>
        <_>
          16 7 1 4 2.</_>
        <_>
          17 11 1 4 2.</_></rects>
      <tilted>0</tilted></_>
    <_>
      <rects>
        <_>
          16 17 3 2 -1.</_>
        <_>
          17 17 1 2 3.</_></rects>
      <tilted>0</tilted></_>
    <_>
      <rects>
        <_>
          20 0 3 3 -1.</_>
        <_>
          21 0 1 3 3.</_></rects>
      <tilted>0</tilted></_>
    <_>
      <rects>
        <_>
          20 0 3 4 -1.</_>
        <_>
          21 0 1 4 3.</_></rects>
      <tilted>0</tilted></_>
    <_>
      <rects>
        <_>
          20 1 1 3 -1.</_>
        <_>
          20 2 1 1 3.</_></rects>
      <tilted>0</tilted></_>
    <_>
      <rects>
        <_>
          21 0 3 3 -1.</_>
        <_>
          22 0 1 3 3.</_></rects>
      <tilted>0</tilted></_>
    <_>
      <rects>
        <_>
          21 0 3 4 -1.</_>
        <_>
          22 0 1 4 3.</_></rects>
      <tilted>0</tilted></_>
    <_>
      <rects>
        <_>
          21 0 1 24 -1.</_>
        <_>
          21 12 1 12 2.</_></rects>
      <tilted>0</tilted></_>
    <_>
      <rects>
        <_>
          21 3 3 4 -1.</_>
        <_>
          21 5 3 2 2.</_></rects>
      <tilted>0</tilted></_>
    <_>
      <rects>
        <_>
          21 5 3 2 -1.</_>
        <_>
          22 5 1 2 3.</_></rects>
      <tilted>0</tilted></_>
    <_>
      <rects>
        <_>
          21 16 3 3 -1.</_>
        <_>
          21 17 3 1 3.</_></rects>
      <tilted>0</tilted></_>
    <_>
      <rects>
        <_>
          22 1 2 6 -1.</_>
        <_>
          23 1 1 6 2.</_></rects>
      <tilted>0</tilted></_>
    <_>
      <rects>
        <_>
          22 4 2 2 -1.</_>
        <_>
          22 5 2 1 2.</_></rects>
      <tilted>0</tilted></_>
    <_>
      <rects>
        <_>
          22 14 1 8 -1.</_>
        <_>
          22 18 1 4 2.</_></rects>
      <tilted>0</tilted></_>
    <_>
      <rects>
        <_>
          22 15 2 5 -1.</_>
        <_>
          23 15 1 5 2.</_></rects>
      <tilted>0</tilted></_>
    <_>
      <rects>
        <_>
          22 16 2 2 -1.</_>
        <_>
          23 16 1 2 2.</_></rects>
      <tilted>0</tilted></_>
    <_>
      <rects>
        <_>
          23 2 1 12 -1.</_>
        <_>
          23 6 1 4 3.</_></rects>
      <tilted>0</tilted></_>
    <_>
      <rects>
        <_>
          23 3 1 4 -1.</_>
        <_>
          23 5 1 2 2.</_></rects>
      <tilted>0</tilted></_>
    <_>
      <rects>
        <_>
          23 8 1 4 -1.</_>
        <_>
          23 10 1 2 2.</_></rects>
      <tilted>0</tilted></_>
    <_>
      <rects>
        <_>
          23 10 1 9 -1.</_>
        <_>
          23 13 1 3 3.</_></rects>
      <tilted>0</tilted></_>
    <_>
      <rects>
        <_>
          23 12 1 12 -1.</_>
        <_>
          23 16 1 4 3.</_></rects>
      <tilted>0</tilted></_>
    <_>
      <rects>
        <_>
          23 14 1 2 -1.</_>
        <_>
          23 15 1 1 2.</_></rects>
      <tilted>0</tilted></_>
    <_>
      <rects>
        <_>
          23 16 1 8 -1.</_>
        <_>
          23 20 1 4 2.</_></rects>
      <tilted>0</tilted></_>
    <_>
      <rects>
        <_>
          23 17 1 3 -1.</_>
        <_>
          23 18 1 1 3.</_></rects>
      <tilted>0</tilted></_></features></cascade>
</opencv_storage>
