<?xml version="1.0"?>
<opencv_storage>
<stage10>
  <maxWeakCount>8</maxWeakCount>
  <stageThreshold>-2.2965472936630249e-01</stageThreshold>
  <weakClassifiers>
    <_>
      <internalNodes>
        0 -1 161054 -1.5325697604566813e-03</internalNodes>
      <leafValues>
        -3.7662336230278015e-01 7.9591834545135498e-01</leafValues></_>
    <_>
      <internalNodes>
        0 -1 162316 -1.4627864584326744e-03</internalNodes>
      <leafValues>
        -4.8041367530822754e-01 5.6017446517944336e-01</leafValues></_>
    <_>
      <internalNodes>
        0 -1 112490 4.0750629268586636e-03</internalNodes>
      <leafValues>
        -2.5560390949249268e-01 8.7082231044769287e-01</leafValues></_>
    <_>
      <internalNodes>
        0 -1 5845 1.4631091617047787e-03</internalNodes>
      <leafValues>
        3.3160609006881714e-01 -7.6742070913314819e-01</leafValues></_>
    <_>
      <internalNodes>
        0 -1 104396 4.2914524674415588e-03</internalNodes>
      <leafValues>
        -2.6478508114814758e-01 8.8925880193710327e-01</leafValues></_>
    <_>
      <internalNodes>
        0 -1 248 2.6288493536412716e-03</internalNodes>
      <leafValues>
        2.9602965712547302e-01 -7.3229372501373291e-01</leafValues></_>
    <_>
      <internalNodes>
        0 -1 112174 -4.2688399553298950e-03</internalNodes>
      <leafValues>
        6.9504255056381226e-01 -3.0755206942558289e-01</leafValues></_>
    <_>
      <internalNodes>
        0 -1 125414 -2.5945312809199095e-03</internalNodes>
      <leafValues>
        8.7439179420471191e-01 -2.1290048956871033e-01</leafValues></_></weakClassifiers></stage10>
</opencv_storage>
