<?xml version="1.0"?>
<opencv_storage>
<stage15>
  <maxWeakCount>6</maxWeakCount>
  <stageThreshold>-1.1562256813049316e+00</stageThreshold>
  <weakClassifiers>
    <_>
      <internalNodes>
        0 -1 118252 -2.6437824126332998e-03</internalNodes>
      <leafValues>
        8.0000001192092896e-01 -5.7184749841690063e-01</leafValues></_>
    <_>
      <internalNodes>
        0 -1 161366 -1.0599648812785745e-03</internalNodes>
      <leafValues>
        -7.9820269346237183e-01 2.0771311223506927e-01</leafValues></_>
    <_>
      <internalNodes>
        0 -1 49301 -2.8693108106381260e-05</internalNodes>
      <leafValues>
        3.7205266952514648e-01 -5.6640833616256714e-01</leafValues></_>
    <_>
      <internalNodes>
        0 -1 139403 -8.0064329085871577e-04</internalNodes>
      <leafValues>
        -7.3522549867630005e-01 3.1791216135025024e-01</leafValues></_>
    <_>
      <internalNodes>
        0 -1 23620 -3.5521065001375973e-05</internalNodes>
      <leafValues>
        3.6725252866744995e-01 -5.4828727245330811e-01</leafValues></_>
    <_>
      <internalNodes>
        0 -1 94627 3.3794902265071869e-02</internalNodes>
      <leafValues>
        2.0974487066268921e-01 -1.</leafValues></_></weakClassifiers></stage15>
</opencv_storage>
