<?xml version="1.0"?>
<opencv_storage>
<stage5>
  <maxWeakCount>6</maxWeakCount>
  <stageThreshold>-1.0138934850692749e+00</stageThreshold>
  <weakClassifiers>
    <_>
      <internalNodes>
        0 -1 104396 -4.4859088957309723e-03</internalNodes>
      <leafValues>
        7.3076921701431274e-01 -6.5517240762710571e-01</leafValues></_>
    <_>
      <internalNodes>
        0 -1 144018 -3.9891204796731472e-03</internalNodes>
      <leafValues>
        -8.2388758659362793e-01 2.2051130235195160e-01</leafValues></_>
    <_>
      <internalNodes>
        0 -1 48776 -8.5733365267515182e-05</internalNodes>
      <leafValues>
        3.3715206384658813e-01 -5.8187496662139893e-01</leafValues></_>
    <_>
      <internalNodes>
        0 -1 106965 -3.8098056393209845e-05</internalNodes>
      <leafValues>
        3.4509840607643127e-01 -6.6182458400726318e-01</leafValues></_>
    <_>
      <internalNodes>
        0 -1 125057 1.6473857685923576e-03</internalNodes>
      <leafValues>
        -3.7069594860076904e-01 7.9275792837142944e-01</leafValues></_>
    <_>
      <internalNodes>
        0 -1 148315 -1.1874763295054436e-03</internalNodes>
      <leafValues>
        -8.9078688621520996e-01 2.5156971812248230e-01</leafValues></_></weakClassifiers></stage5>
</opencv_storage>
