<?xml version="1.0"?>
<opencv_storage>
<stage4>
  <maxWeakCount>9</maxWeakCount>
  <stageThreshold>-7.4155658483505249e-01</stageThreshold>
  <weakClassifiers>
    <_>
      <internalNodes>
        0 -1 83580 9.6585854887962341e-02</internalNodes>
      <leafValues>
        -1.8205188214778900e-01 7.1115672588348389e-01</leafValues></_>
    <_>
      <internalNodes>
        0 -1 259187 -1.0428770910948515e-03</internalNodes>
      <leafValues>
        -8.6110609769821167e-01 1.8539373576641083e-01</leafValues></_>
    <_>
      <internalNodes>
        0 -1 259187 9.5118192257359624e-04</internalNodes>
      <leafValues>
        1.4605532586574554e-01 -8.5490477085113525e-01</leafValues></_>
    <_>
      <internalNodes>
        0 -1 152588 1.0592743754386902e-02</internalNodes>
      <leafValues>
        -3.0793657898902893e-01 5.7921200990676880e-01</leafValues></_>
    <_>
      <internalNodes>
        0 -1 165825 1.8483428284525871e-03</internalNodes>
      <leafValues>
        -1.8729278445243835e-01 7.5241225957870483e-01</leafValues></_>
    <_>
      <internalNodes>
        0 -1 156439 1.1009417939931154e-03</internalNodes>
      <leafValues>
        1.4810928702354431e-01 -8.0721175670623779e-01</leafValues></_>
    <_>
      <internalNodes>
        0 -1 156439 -1.2107430957257748e-03</internalNodes>
      <leafValues>
        -8.3188259601593018e-01 1.5937574207782745e-01</leafValues></_>
    <_>
      <internalNodes>
        0 -1 211940 1.5054580289870501e-03</internalNodes>
      <leafValues>
        -2.2573155164718628e-01 5.1835793256759644e-01</leafValues></_>
    <_>
      <internalNodes>
        0 -1 43216 -1.2551199644804001e-02</internalNodes>
      <leafValues>
        5.9165465831756592e-01 -1.8274365365505219e-01</leafValues></_></weakClassifiers></stage4>
</opencv_storage>
