<?xml version="1.0"?>
<opencv_storage>
<stage17>
  <maxWeakCount>25</maxWeakCount>
  <stageThreshold>-1.0848851203918457e+00</stageThreshold>
  <weakClassifiers>
    <_>
      <internalNodes>
        0 -1 186235 8.1841498613357544e-02</internalNodes>
      <leafValues>
        -1.8203592300415039e-01 3.6166667938232422e-01</leafValues></_>
    <_>
      <internalNodes>
        0 -1 180991 3.3920812711585313e-05</internalNodes>
      <leafValues>
        -1.9265930354595184e-01 3.7223297357559204e-01</leafValues></_>
    <_>
      <internalNodes>
        0 -1 769 1.2124872952699661e-01</internalNodes>
      <leafValues>
        8.2980602979660034e-02 -7.6469188928604126e-01</leafValues></_>
    <_>
      <internalNodes>
        0 -1 157325 1.3539990782737732e-01</internalNodes>
      <leafValues>
        7.1343131363391876e-02 -7.1750897169113159e-01</leafValues></_>
    <_>
      <internalNodes>
        0 -1 50353 -6.3254423439502716e-03</internalNodes>
      <leafValues>
        -4.3923988938331604e-01 1.3311137259006500e-01</leafValues></_>
    <_>
      <internalNodes>
        0 -1 180991 -3.0521157896146178e-05</internalNodes>
      <leafValues>
        2.2724714875221252e-01 -3.0931422114372253e-01</leafValues></_>
    <_>
      <internalNodes>
        0 -1 178055 -2.0991174504160881e-02</internalNodes>
      <leafValues>
        -7.9267805814743042e-01 1.6727437078952789e-01</leafValues></_>
    <_>
      <internalNodes>
        0 -1 203144 -5.1160682924091816e-03</internalNodes>
      <leafValues>
        3.3765548467636108e-01 -1.7251272499561310e-01</leafValues></_>
    <_>
      <internalNodes>
        0 -1 250492 9.8638217896223068e-03</internalNodes>
      <leafValues>
        -1.7714893817901611e-01 3.3881855010986328e-01</leafValues></_>
    <_>
      <internalNodes>
        0 -1 245116 -3.5233970731496811e-02</internalNodes>
      <leafValues>
        6.2908494472503662e-01 -9.9911309778690338e-02</leafValues></_>
    <_>
      <internalNodes>
        0 -1 261531 8.2991330418735743e-04</internalNodes>
      <leafValues>
        8.0172859132289886e-02 -7.7197837829589844e-01</leafValues></_>
    <_>
      <internalNodes>
        0 -1 148307 -3.5924956202507019e-02</internalNodes>
      <leafValues>
        -7.6878798007965088e-01 5.8686763048171997e-02</leafValues></_>
    <_>
      <internalNodes>
        0 -1 111167 -1.1643095058389008e-04</internalNodes>
      <leafValues>
        3.0945301055908203e-01 -1.6971148550510406e-01</leafValues></_>
    <_>
      <internalNodes>
        0 -1 111167 2.2097930195741355e-04</internalNodes>
      <leafValues>
        -2.0974564552307129e-01 3.2185828685760498e-01</leafValues></_>
    <_>
      <internalNodes>
        0 -1 261416 -8.2417286466807127e-04</internalNodes>
      <leafValues>
        -7.6973682641983032e-01 7.8674271702766418e-02</leafValues></_>
    <_>
      <internalNodes>
        0 -1 166385 -5.9552676975727081e-04</internalNodes>
      <leafValues>
        2.0349420607089996e-01 -2.6546326279640198e-01</leafValues></_>
    <_>
      <internalNodes>
        0 -1 36 -1.7296462319791317e-03</internalNodes>
      <leafValues>
        -7.6369088888168335e-01 5.5936239659786224e-02</leafValues></_>
    <_>
      <internalNodes>
        0 -1 46379 -1.4582420699298382e-03</internalNodes>
      <leafValues>
        2.8101709485054016e-01 -1.9805569946765900e-01</leafValues></_>
    <_>
      <internalNodes>
        0 -1 29097 -2.2754687815904617e-03</internalNodes>
      <leafValues>
        4.3662780523300171e-01 -1.2847170233726501e-01</leafValues></_>
    <_>
      <internalNodes>
        0 -1 210918 -1.0200901888310909e-03</internalNodes>
      <leafValues>
        4.6780693531036377e-01 -1.1859594285488129e-01</leafValues></_>
    <_>
      <internalNodes>
        0 -1 210918 5.3755025146529078e-04</internalNodes>
      <leafValues>
        -1.9460064172744751e-01 3.8663804531097412e-01</leafValues></_>
    <_>
      <internalNodes>
        0 -1 34 2.5099597405642271e-03</internalNodes>
      <leafValues>
        7.1988500654697418e-02 -9.0716028213500977e-01</leafValues></_>
    <_>
      <internalNodes>
        0 -1 165465 2.6591630652546883e-02</internalNodes>
      <leafValues>
        5.0535537302494049e-02 -7.6364910602569580e-01</leafValues></_>
    <_>
      <internalNodes>
        0 -1 166911 7.9615027061663568e-05</internalNodes>
      <leafValues>
        -2.3359358310699463e-01 2.4012704193592072e-01</leafValues></_>
    <_>
      <internalNodes>
        0 -1 166389 -7.8410306014120579e-04</internalNodes>
      <leafValues>
        5.0602298974990845e-01 -1.3597714900970459e-01</leafValues></_></weakClassifiers></stage17>
</opencv_storage>
