<?xml version="1.0"?>
<opencv_storage>
<stage0>
  <maxWeakCount>10</maxWeakCount>
  <stageThreshold>-9.4856214523315430e-01</stageThreshold>
  <weakClassifiers>
    <_>
      <internalNodes>
        0 -1 178334 -2.3274836130440235e-03</internalNodes>
      <leafValues>
        6.7350429296493530e-01 -3.8705882430076599e-01</leafValues></_>
    <_>
      <internalNodes>
        0 -1 177340 -2.2642817348241806e-02</internalNodes>
      <leafValues>
        8.0501580238342285e-01 -3.0208042263984680e-01</leafValues></_>
    <_>
      <internalNodes>
        0 -1 7205 -5.6594741344451904e-01</internalNodes>
      <leafValues>
        7.7735167741775513e-01 -1.6332039237022400e-01</leafValues></_>
    <_>
      <internalNodes>
        0 -1 121369 -1.1133259162306786e-02</internalNodes>
      <leafValues>
        6.1004596948623657e-01 -2.2962863743305206e-01</leafValues></_>
    <_>
      <internalNodes>
        0 -1 153172 -2.5703022256493568e-03</internalNodes>
      <leafValues>
        7.1240168809890747e-01 -2.1369731426239014e-01</leafValues></_>
    <_>
      <internalNodes>
        0 -1 17034 1.3143348041921854e-03</internalNodes>
      <leafValues>
        2.0012642443180084e-01 -9.0297168493270874e-01</leafValues></_>
    <_>
      <internalNodes>
        0 -1 17037 -1.4695349382236600e-03</internalNodes>
      <leafValues>
        -8.5050916671752930e-01 1.8010796606540680e-01</leafValues></_>
    <_>
      <internalNodes>
        0 -1 165229 -4.5702578499913216e-03</internalNodes>
      <leafValues>
        7.3845422267913818e-01 -2.5259116291999817e-01</leafValues></_>
    <_>
      <internalNodes>
        0 -1 251595 1.2793245259672403e-03</internalNodes>
      <leafValues>
        2.0303559303283691e-01 -8.5431200265884399e-01</leafValues></_>
    <_>
      <internalNodes>
        0 -1 251595 -1.5692486194893718e-03</internalNodes>
      <leafValues>
        -9.3229514360427856e-01 1.2106274068355560e-01</leafValues></_></weakClassifiers></stage0>
</opencv_storage>
