<?xml version="1.0"?>
<opencv_storage>
<stage19>
  <maxWeakCount>13</maxWeakCount>
  <stageThreshold>-7.2039145231246948e-01</stageThreshold>
  <weakClassifiers>
    <_>
      <internalNodes>
        0 -1 87159 9.5215393230319023e-04</internalNodes>
      <leafValues>
        6.7553645372390747e-01 -5.4716980457305908e-01</leafValues></_>
    <_>
      <internalNodes>
        0 -1 95360 -2.0777059718966484e-02</internalNodes>
      <leafValues>
        -8.0771815776824951e-01 2.8126770257949829e-01</leafValues></_>
    <_>
      <internalNodes>
        0 -1 9442 -1.3155792839825153e-03</internalNodes>
      <leafValues>
        -8.1620842218399048e-01 1.7003732919692993e-01</leafValues></_>
    <_>
      <internalNodes>
        0 -1 135443 -6.0874624177813530e-03</internalNodes>
      <leafValues>
        7.9512333869934082e-01 -2.0725543797016144e-01</leafValues></_>
    <_>
      <internalNodes>
        0 -1 49638 -2.3677470162510872e-03</internalNodes>
      <leafValues>
        -7.3613983392715454e-01 2.0876230299472809e-01</leafValues></_>
    <_>
      <internalNodes>
        0 -1 157095 2.5394125841557980e-03</internalNodes>
      <leafValues>
        2.0349325239658356e-01 -6.5757495164871216e-01</leafValues></_>
    <_>
      <internalNodes>
        0 -1 97936 4.6922545880079269e-03</internalNodes>
      <leafValues>
        -2.3427882790565491e-01 8.2546418905258179e-01</leafValues></_>
    <_>
      <internalNodes>
        0 -1 69875 5.4623521864414215e-03</internalNodes>
      <leafValues>
        -1.8952611088752747e-01 8.9295458793640137e-01</leafValues></_>
    <_>
      <internalNodes>
        0 -1 61173 -9.5136284828186035e-02</internalNodes>
      <leafValues>
        -7.4629336595535278e-01 2.7329999208450317e-01</leafValues></_>
    <_>
      <internalNodes>
        0 -1 141899 -2.9447348788380623e-03</internalNodes>
      <leafValues>
        6.7088776826858521e-01 -2.3776854574680328e-01</leafValues></_>
    <_>
      <internalNodes>
        0 -1 112490 5.2509614033624530e-04</internalNodes>
      <leafValues>
        -5.3113633394241333e-01 2.8751987218856812e-01</leafValues></_>
    <_>
      <internalNodes>
        0 -1 19818 -7.2358593344688416e-02</internalNodes>
      <leafValues>
        -7.8796207904815674e-01 1.8198838829994202e-01</leafValues></_>
    <_>
      <internalNodes>
        0 -1 139321 -1.3670179214386735e-05</internalNodes>
      <leafValues>
        3.7668797373771667e-01 -4.5374342799186707e-01</leafValues></_></weakClassifiers></stage19>
</opencv_storage>
