<?xml version="1.0"?>
<opencv_storage>
<stage10>
  <maxWeakCount>10</maxWeakCount>
  <stageThreshold>-8.7403047084808350e-01</stageThreshold>
  <weakClassifiers>
    <_>
      <internalNodes>
        0 -1 161028 -1.0658004321157932e-03</internalNodes>
      <leafValues>
        -6.3809525966644287e-01 6.8267583847045898e-01</leafValues></_>
    <_>
      <internalNodes>
        0 -1 118976 -5.2952729165554047e-03</internalNodes>
      <leafValues>
        9.6338295936584473e-01 -9.0162597596645355e-02</leafValues></_>
    <_>
      <internalNodes>
        0 -1 104744 -6.5656891092658043e-03</internalNodes>
      <leafValues>
        8.1371158361434937e-01 -2.0227771997451782e-01</leafValues></_>
    <_>
      <internalNodes>
        0 -1 11505 1.1364908423274755e-03</internalNodes>
      <leafValues>
        2.4791131913661957e-01 -8.1962925195693970e-01</leafValues></_>
    <_>
      <internalNodes>
        0 -1 111025 4.2887181043624878e-03</internalNodes>
      <leafValues>
        -2.8618341684341431e-01 7.0060503482818604e-01</leafValues></_>
    <_>
      <internalNodes>
        0 -1 96094 -1.2729659676551819e-02</internalNodes>
      <leafValues>
        8.0628722906112671e-01 -2.2207492589950562e-01</leafValues></_>
    <_>
      <internalNodes>
        0 -1 106880 -1.1964759323745966e-03</internalNodes>
      <leafValues>
        -7.1959269046783447e-01 3.1394726037979126e-01</leafValues></_>
    <_>
      <internalNodes>
        0 -1 131211 -3.3409972675144672e-03</internalNodes>
      <leafValues>
        7.1095752716064453e-01 -2.8972297906875610e-01</leafValues></_>
    <_>
      <internalNodes>
        0 -1 159294 1.4615196269005537e-03</internalNodes>
      <leafValues>
        2.4335494637489319e-01 -7.9254889488220215e-01</leafValues></_>
    <_>
      <internalNodes>
        0 -1 89045 2.0238349679857492e-03</internalNodes>
      <leafValues>
        -2.2709746658802032e-01 8.2958239316940308e-01</leafValues></_></weakClassifiers></stage10>
</opencv_storage>
