<?xml version="1.0"?>
<opencv_storage>
<stage7>
  <maxWeakCount>11</maxWeakCount>
  <stageThreshold>-7.6336604356765747e-01</stageThreshold>
  <weakClassifiers>
    <_>
      <internalNodes>
        0 -1 161332 -8.4573461208492517e-04</internalNodes>
      <leafValues>
        -7.3493975400924683e-01 6.6498315334320068e-01</leafValues></_>
    <_>
      <internalNodes>
        0 -1 112172 2.3445379920303822e-03</internalNodes>
      <leafValues>
        -3.4110274910926819e-01 7.1342229843139648e-01</leafValues></_>
    <_>
      <internalNodes>
        0 -1 104396 4.2451964691281319e-03</internalNodes>
      <leafValues>
        -2.8510701656341553e-01 9.3950176239013672e-01</leafValues></_>
    <_>
      <internalNodes>
        0 -1 137420 1.4779036864638329e-02</internalNodes>
      <leafValues>
        -1.7610445618629456e-01 9.0164893865585327e-01</leafValues></_>
    <_>
      <internalNodes>
        0 -1 104399 -5.6120366789400578e-03</internalNodes>
      <leafValues>
        9.9653249979019165e-01 -2.4913865327835083e-01</leafValues></_>
    <_>
      <internalNodes>
        0 -1 161592 -1.0621211258694530e-03</internalNodes>
      <leafValues>
        -7.6361429691314697e-01 3.2664090394973755e-01</leafValues></_>
    <_>
      <internalNodes>
        0 -1 89285 3.3397120423614979e-03</internalNodes>
      <leafValues>
        -2.5092974305152893e-01 8.5205823183059692e-01</leafValues></_>
    <_>
      <internalNodes>
        0 -1 118252 -1.5347925364039838e-04</internalNodes>
      <leafValues>
        6.1093747615814209e-01 -2.9877325892448425e-01</leafValues></_>
    <_>
      <internalNodes>
        0 -1 125414 -1.7398260533809662e-03</internalNodes>
      <leafValues>
        8.2909041643142700e-01 -2.4002130329608917e-01</leafValues></_>
    <_>
      <internalNodes>
        0 -1 112494 -3.1139962375164032e-03</internalNodes>
      <leafValues>
        7.8370833396911621e-01 -1.7749528586864471e-01</leafValues></_>
    <_>
      <internalNodes>
        0 -1 48489 9.1029412578791380e-04</internalNodes>
      <leafValues>
        2.6368233561515808e-01 -7.9951202869415283e-01</leafValues></_></weakClassifiers></stage7>
</opencv_storage>
