<?xml version="1.0"?>
<opencv_storage>
<stage3>
  <maxWeakCount>7</maxWeakCount>
  <stageThreshold>-7.0889806747436523e-01</stageThreshold>
  <weakClassifiers>
    <_>
      <internalNodes>
        0 -1 25444 6.7585939541459084e-04</internalNodes>
      <leafValues>
        7.1103328466415405e-01 -6.4341086149215698e-01</leafValues></_>
    <_>
      <internalNodes>
        0 -1 112492 3.7868830841034651e-03</internalNodes>
      <leafValues>
        -2.5752782821655273e-01 9.0912818908691406e-01</leafValues></_>
    <_>
      <internalNodes>
        0 -1 162002 -8.1464042887091637e-04</internalNodes>
      <leafValues>
        -8.9217352867126465e-01 3.1276774406433105e-01</leafValues></_>
    <_>
      <internalNodes>
        0 -1 132121 -7.6190368272364140e-03</internalNodes>
      <leafValues>
        9.3647789955139160e-01 -2.6399943232536316e-01</leafValues></_>
    <_>
      <internalNodes>
        0 -1 112494 -2.3976648226380348e-03</internalNodes>
      <leafValues>
        8.8406556844711304e-01 -2.4782271683216095e-01</leafValues></_>
    <_>
      <internalNodes>
        0 -1 161856 5.9886189410462976e-04</internalNodes>
      <leafValues>
        3.5388898849487305e-01 -6.6507488489151001e-01</leafValues></_>
    <_>
      <internalNodes>
        0 -1 131519 1.2570219114422798e-03</internalNodes>
      <leafValues>
        -2.9827418923377991e-01 7.8558677434921265e-01</leafValues></_></weakClassifiers></stage3>
</opencv_storage>
