<?xml version="1.0"?>
<opencv_storage>
<stage13>
  <maxWeakCount>8</maxWeakCount>
  <stageThreshold>-4.3406435847282410e-01</stageThreshold>
  <weakClassifiers>
    <_>
      <internalNodes>
        0 -1 160895 2.0055929198861122e-03</internalNodes>
      <leafValues>
        6.8600684404373169e-01 -7.5757575035095215e-01</leafValues></_>
    <_>
      <internalNodes>
        0 -1 57175 1.7951246351003647e-02</internalNodes>
      <leafValues>
        4.1921827197074890e-01 -6.2981009483337402e-01</leafValues></_>
    <_>
      <internalNodes>
        0 -1 124681 -6.3461451791226864e-03</internalNodes>
      <leafValues>
        9.4034796953201294e-01 -2.5519123673439026e-01</leafValues></_>
    <_>
      <internalNodes>
        0 -1 104744 -6.8731987848877907e-03</internalNodes>
      <leafValues>
        7.8839701414108276e-01 -2.1715880930423737e-01</leafValues></_>
    <_>
      <internalNodes>
        0 -1 112534 5.5161975324153900e-03</internalNodes>
      <leafValues>
        -1.8015296757221222e-01 9.2129564285278320e-01</leafValues></_>
    <_>
      <internalNodes>
        0 -1 162142 1.5665518585592508e-03</internalNodes>
      <leafValues>
        2.4774619936943054e-01 -8.2022136449813843e-01</leafValues></_>
    <_>
      <internalNodes>
        0 -1 108603 -4.1228812187910080e-03</internalNodes>
      <leafValues>
        6.8715769052505493e-01 -2.9048714041709900e-01</leafValues></_>
    <_>
      <internalNodes>
        0 -1 25453 -1.3701990246772766e-03</internalNodes>
      <leafValues>
        -8.0932056903839111e-01 2.2392201423645020e-01</leafValues></_></weakClassifiers></stage13>
</opencv_storage>
